digraph Tree {
node [shape=box] ;
0 [label="X[7] <= 0.5\ngini = 0.367\nsamples = 21815\nvalue = [16524, 5291]"] ;
1 [label="X[4] <= 12.5\ngini = 0.495\nsamples = 8887\nvalue = [4885, 4002]"] ;
0 -> 1 [labeldistance=2.5, labelangle=45, headlabel="True"] ;
2 [label="X[10] <= 5095.5\ngini = 0.442\nsamples = 6177\nvalue = [4136, 2041]"] ;
1 -> 2 ;
3 [label="X[11] <= 1782.5\ngini = 0.417\nsamples = 5868\nvalue = [4129, 1739]"] ;
2 -> 3 ;
4 [label="X[4] <= 7.5\ngini = 0.402\nsamples = 5640\nvalue = [4066, 1574]"] ;
3 -> 4 ;
5 [label="X[3] <= 0.5\ngini = 0.179\nsamples = 874\nvalue = [787, 87]"] ;
4 -> 5 ;
6 [label="X[6] <= 12.5\ngini = 0.277\nsamples = 193\nvalue = [161, 32]"] ;
5 -> 6 ;
7 [label="X[2] <= 199643.5\ngini = 0.23\nsamples = 158\nvalue = [137, 21]"] ;
6 -> 7 ;
8 [label="X[2] <= 198099.5\ngini = 0.301\nsamples = 92\nvalue = [75, 17]"] ;
7 -> 8 ;
9 [label="X[2] <= 160414.5\ngini = 0.278\nsamples = 90\nvalue = [75, 15]"] ;
8 -> 9 ;
10 [label="X[12] <= 26.0\ngini = 0.206\nsamples = 60\nvalue = [53, 7]"] ;
9 -> 10 ;
11 [label="X[12] <= 21.0\ngini = 0.5\nsamples = 2\nvalue = [1, 1]"] ;
10 -> 11 ;
12 [label="gini = 0.0\nsamples = 1\nvalue = [1, 0]"] ;
11 -> 12 ;
13 [label="gini = 0.0\nsamples = 1\nvalue = [0, 1]"] ;
11 -> 13 ;
14 [label="X[6] <= 4.5\ngini = 0.185\nsamples = 58\nvalue = [52, 6]"] ;
10 -> 14 ;
15 [label="X[12] <= 42.5\ngini = 0.285\nsamples = 29\nvalue = [24, 5]"] ;
14 -> 15 ;
16 [label="X[0] <= 54.0\ngini = 0.172\nsamples = 21\nvalue = [19, 2]"] ;
15 -> 16 ;
17 [label="gini = 0.0\nsamples = 14\nvalue = [14, 0]"] ;
16 -> 17 ;
18 [label="X[0] <= 60.5\ngini = 0.408\nsamples = 7\nvalue = [5, 2]"] ;
16 -> 18 ;
19 [label="X[2] <= 127561.5\ngini = 0.444\nsamples = 3\nvalue = [1, 2]"] ;
18 -> 19 ;
20 [label="gini = 0.0\nsamples = 2\nvalue = [0, 2]"] ;
19 -> 20 ;
21 [label="gini = 0.0\nsamples = 1\nvalue = [1, 0]"] ;
19 -> 21 ;
22 [label="gini = 0.0\nsamples = 4\nvalue = [4, 0]"] ;
18 -> 22 ;
23 [label="X[0] <= 46.5\ngini = 0.469\nsamples = 8\nvalue = [5, 3]"] ;
15 -> 23 ;
24 [label="X[0] <= 35.5\ngini = 0.32\nsamples = 5\nvalue = [4, 1]"] ;
23 -> 24 ;
25 [label="X[6] <= 3.5\ngini = 0.5\nsamples = 2\nvalue = [1, 1]"] ;
24 -> 25 ;
26 [label="gini = 0.0\nsamples = 1\nvalue = [0, 1]"] ;
25 -> 26 ;
27 [label="gini = 0.0\nsamples = 1\nvalue = [1, 0]"] ;
25 -> 27 ;
28 [label="gini = 0.0\nsamples = 3\nvalue = [3, 0]"] ;
24 -> 28 ;
29 [label="X[0] <= 57.0\ngini = 0.444\nsamples = 3\nvalue = [1, 2]"] ;
23 -> 29 ;
30 [label="gini = 0.0\nsamples = 2\nvalue = [0, 2]"] ;
29 -> 30 ;
31 [label="gini = 0.0\nsamples = 1\nvalue = [1, 0]"] ;
29 -> 31 ;
32 [label="X[0] <= 41.0\ngini = 0.067\nsamples = 29\nvalue = [28, 1]"] ;
14 -> 32 ;
33 [label="X[0] <= 39.5\ngini = 0.32\nsamples = 5\nvalue = [4, 1]"] ;
32 -> 33 ;
34 [label="gini = 0.0\nsamples = 4\nvalue = [4, 0]"] ;
33 -> 34 ;
35 [label="gini = 0.0\nsamples = 1\nvalue = [0, 1]"] ;
33 -> 35 ;
36 [label="gini = 0.0\nsamples = 24\nvalue = [24, 0]"] ;
32 -> 36 ;
37 [label="X[2] <= 171894.0\ngini = 0.391\nsamples = 30\nvalue = [22, 8]"] ;
9 -> 37 ;
38 [label="X[6] <= 4.0\ngini = 0.469\nsamples = 8\nvalue = [3, 5]"] ;
37 -> 38 ;
39 [label="gini = 0.0\nsamples = 3\nvalue = [0, 3]"] ;
38 -> 39 ;
40 [label="X[2] <= 168824.0\ngini = 0.48\nsamples = 5\nvalue = [3, 2]"] ;
38 -> 40 ;
41 [label="gini = 0.0\nsamples = 3\nvalue = [3, 0]"] ;
40 -> 41 ;
42 [label="gini = 0.0\nsamples = 2\nvalue = [0, 2]"] ;
40 -> 42 ;
43 [label="X[0] <= 32.5\ngini = 0.236\nsamples = 22\nvalue = [19, 3]"] ;
37 -> 43 ;
44 [label="gini = 0.0\nsamples = 1\nvalue = [0, 1]"] ;
43 -> 44 ;
45 [label="X[13] <= 22.0\ngini = 0.172\nsamples = 21\nvalue = [19, 2]"] ;
43 -> 45 ;
46 [label="gini = 0.0\nsamples = 1\nvalue = [0, 1]"] ;
45 -> 46 ;
47 [label="X[12] <= 45.5\ngini = 0.095\nsamples = 20\nvalue = [19, 1]"] ;
45 -> 47 ;
48 [label="gini = 0.0\nsamples = 17\nvalue = [17, 0]"] ;
47 -> 48 ;
49 [label="X[1] <= 2.0\ngini = 0.444\nsamples = 3\nvalue = [2, 1]"] ;
47 -> 49 ;
50 [label="gini = 0.0\nsamples = 2\nvalue = [2, 0]"] ;
49 -> 50 ;
51 [label="gini = 0.0\nsamples = 1\nvalue = [0, 1]"] ;
49 -> 51 ;
52 [label="gini = 0.0\nsamples = 2\nvalue = [0, 2]"] ;
8 -> 52 ;
53 [label="X[2] <= 383987.5\ngini = 0.114\nsamples = 66\nvalue = [62, 4]"] ;
7 -> 53 ;
54 [label="X[12] <= 57.5\ngini = 0.034\nsamples = 57\nvalue = [56, 1]"] ;
53 -> 54 ;
55 [label="gini = 0.0\nsamples = 52\nvalue = [52, 0]"] ;
54 -> 55 ;
56 [label="X[12] <= 65.0\ngini = 0.32\nsamples = 5\nvalue = [4, 1]"] ;
54 -> 56 ;
57 [label="X[1] <= 3.0\ngini = 0.5\nsamples = 2\nvalue = [1, 1]"] ;
56 -> 57 ;
58 [label="gini = 0.0\nsamples = 1\nvalue = [1, 0]"] ;
57 -> 58 ;
59 [label="gini = 0.0\nsamples = 1\nvalue = [0, 1]"] ;
57 -> 59 ;
60 [label="gini = 0.0\nsamples = 3\nvalue = [3, 0]"] ;
56 -> 60 ;
61 [label="X[2] <= 447239.5\ngini = 0.444\nsamples = 9\nvalue = [6, 3]"] ;
53 -> 61 ;
62 [label="gini = 0.0\nsamples = 2\nvalue = [0, 2]"] ;
61 -> 62 ;
63 [label="X[1] <= 6.0\ngini = 0.245\nsamples = 7\nvalue = [6, 1]"] ;
61 -> 63 ;
64 [label="gini = 0.0\nsamples = 6\nvalue = [6, 0]"] ;
63 -> 64 ;
65 [label="gini = 0.0\nsamples = 1\nvalue = [0, 1]"] ;
63 -> 65 ;
66 [label="X[6] <= 13.5\ngini = 0.431\nsamples = 35\nvalue = [24, 11]"] ;
6 -> 66 ;
67 [label="gini = 0.0\nsamples = 1\nvalue = [0, 1]"] ;
66 -> 67 ;
68 [label="X[0] <= 45.0\ngini = 0.415\nsamples = 34\nvalue = [24, 10]"] ;
66 -> 68 ;
69 [label="X[8] <= 3.0\ngini = 0.165\nsamples = 11\nvalue = [10, 1]"] ;
68 -> 69 ;
70 [label="X[1] <= 5.0\ngini = 0.5\nsamples = 2\nvalue = [1, 1]"] ;
69 -> 70 ;
71 [label="gini = 0.0\nsamples = 1\nvalue = [0, 1]"] ;
70 -> 71 ;
72 [label="gini = 0.0\nsamples = 1\nvalue = [1, 0]"] ;
70 -> 72 ;
73 [label="gini = 0.0\nsamples = 9\nvalue = [9, 0]"] ;
69 -> 73 ;
74 [label="X[12] <= 25.0\ngini = 0.476\nsamples = 23\nvalue = [14, 9]"] ;
68 -> 74 ;
75 [label="gini = 0.0\nsamples = 3\nvalue = [3, 0]"] ;
74 -> 75 ;
76 [label="X[1] <= 5.0\ngini = 0.495\nsamples = 20\nvalue = [11, 9]"] ;
74 -> 76 ;
77 [label="X[13] <= 36.0\ngini = 0.5\nsamples = 18\nvalue = [9, 9]"] ;
76 -> 77 ;
78 [label="gini = 0.0\nsamples = 1\nvalue = [1, 0]"] ;
77 -> 78 ;
79 [label="X[12] <= 55.0\ngini = 0.498\nsamples = 17\nvalue = [8, 9]"] ;
77 -> 79 ;
80 [label="X[2] <= 464166.5\ngini = 0.492\nsamples = 16\nvalue = [7, 9]"] ;
79 -> 80 ;
81 [label="X[2] <= 316947.5\ngini = 0.48\nsamples = 15\nvalue = [6, 9]"] ;
80 -> 81 ;
82 [label="X[2] <= 187396.5\ngini = 0.497\nsamples = 13\nvalue = [6, 7]"] ;
81 -> 82 ;
83 [label="X[0] <= 59.5\ngini = 0.408\nsamples = 7\nvalue = [2, 5]"] ;
82 -> 83 ;
84 [label="gini = 0.0\nsamples = 3\nvalue = [0, 3]"] ;
83 -> 84 ;
85 [label="X[0] <= 60.5\ngini = 0.5\nsamples = 4\nvalue = [2, 2]"] ;
83 -> 85 ;
86 [label="gini = 0.0\nsamples = 1\nvalue = [1, 0]"] ;
85 -> 86 ;
87 [label="X[0] <= 62.5\ngini = 0.444\nsamples = 3\nvalue = [1, 2]"] ;
85 -> 87 ;
88 [label="X[12] <= 45.0\ngini = 0.5\nsamples = 2\nvalue = [1, 1]"] ;
87 -> 88 ;
89 [label="gini = 0.0\nsamples = 1\nvalue = [1, 0]"] ;
88 -> 89 ;
90 [label="gini = 0.0\nsamples = 1\nvalue = [0, 1]"] ;
88 -> 90 ;
91 [label="gini = 0.0\nsamples = 1\nvalue = [0, 1]"] ;
87 -> 91 ;
92 [label="X[8] <= 3.0\ngini = 0.444\nsamples = 6\nvalue = [4, 2]"] ;
82 -> 92 ;
93 [label="X[2] <= 242300.0\ngini = 0.444\nsamples = 3\nvalue = [1, 2]"] ;
92 -> 93 ;
94 [label="gini = 0.0\nsamples = 1\nvalue = [1, 0]"] ;
93 -> 94 ;
95 [label="gini = 0.0\nsamples = 2\nvalue = [0, 2]"] ;
93 -> 95 ;
96 [label="gini = 0.0\nsamples = 3\nvalue = [3, 0]"] ;
92 -> 96 ;
97 [label="gini = 0.0\nsamples = 2\nvalue = [0, 2]"] ;
81 -> 97 ;
98 [label="gini = 0.0\nsamples = 1\nvalue = [1, 0]"] ;
80 -> 98 ;
99 [label="gini = 0.0\nsamples = 1\nvalue = [1, 0]"] ;
79 -> 99 ;
100 [label="gini = 0.0\nsamples = 2\nvalue = [2, 0]"] ;
76 -> 100 ;
101 [label="X[12] <= 43.5\ngini = 0.148\nsamples = 681\nvalue = [626, 55]"] ;
5 -> 101 ;
102 [label="X[2] <= 30970.0\ngini = 0.112\nsamples = 522\nvalue = [491, 31]"] ;
101 -> 102 ;
103 [label="X[0] <= 61.5\ngini = 0.49\nsamples = 7\nvalue = [4, 3]"] ;
102 -> 103 ;
104 [label="X[2] <= 29405.5\ngini = 0.375\nsamples = 4\nvalue = [1, 3]"] ;
103 -> 104 ;
105 [label="gini = 0.0\nsamples = 1\nvalue = [1, 0]"] ;
104 -> 105 ;
106 [label="gini = 0.0\nsamples = 3\nvalue = [0, 3]"] ;
104 -> 106 ;
107 [label="gini = 0.0\nsamples = 3\nvalue = [3, 0]"] ;
103 -> 107 ;
108 [label="X[1] <= 4.5\ngini = 0.103\nsamples = 515\nvalue = [487, 28]"] ;
102 -> 108 ;
109 [label="X[2] <= 530730.5\ngini = 0.084\nsamples = 431\nvalue = [412, 19]"] ;
108 -> 109 ;
110 [label="X[12] <= 39.0\ngini = 0.081\nsamples = 428\nvalue = [410, 18]"] ;
109 -> 110 ;
111 [label="gini = 0.0\nsamples = 84\nvalue = [84, 0]"] ;
110 -> 111 ;
112 [label="X[6] <= 4.5\ngini = 0.099\nsamples = 344\nvalue = [326, 18]"] ;
110 -> 112 ;
113 [label="X[8] <= 2.5\ngini = 0.169\nsamples = 107\nvalue = [97, 10]"] ;
112 -> 113 ;
114 [label="X[8] <= 1.5\ngini = 0.48\nsamples = 10\nvalue = [6, 4]"] ;
113 -> 114 ;
115 [label="gini = 0.0\nsamples = 4\nvalue = [4, 0]"] ;
114 -> 115 ;
116 [label="X[1] <= 1.0\ngini = 0.444\nsamples = 6\nvalue = [2, 4]"] ;
114 -> 116 ;
117 [label="gini = 0.0\nsamples = 2\nvalue = [2, 0]"] ;
116 -> 117 ;
118 [label="gini = 0.0\nsamples = 4\nvalue = [0, 4]"] ;
116 -> 118 ;
119 [label="X[6] <= 3.5\ngini = 0.116\nsamples = 97\nvalue = [91, 6]"] ;
113 -> 119 ;
120 [label="X[4] <= 6.0\ngini = 0.084\nsamples = 91\nvalue = [87, 4]"] ;
119 -> 120 ;
121 [label="gini = 0.0\nsamples = 62\nvalue = [62, 0]"] ;
120 -> 121 ;
122 [label="X[2] <= 248954.5\ngini = 0.238\nsamples = 29\nvalue = [25, 4]"] ;
120 -> 122 ;
123 [label="X[2] <= 139518.0\ngini = 0.147\nsamples = 25\nvalue = [23, 2]"] ;
122 -> 123 ;
124 [label="X[2] <= 138942.0\ngini = 0.32\nsamples = 10\nvalue = [8, 2]"] ;
123 -> 124 ;
125 [label="X[0] <= 43.5\ngini = 0.198\nsamples = 9\nvalue = [8, 1]"] ;
124 -> 125 ;
126 [label="X[0] <= 36.5\ngini = 0.32\nsamples = 5\nvalue = [4, 1]"] ;
125 -> 126 ;
127 [label="gini = 0.0\nsamples = 3\nvalue = [3, 0]"] ;
126 -> 127 ;
128 [label="X[2] <= 125605.5\ngini = 0.5\nsamples = 2\nvalue = [1, 1]"] ;
126 -> 128 ;
129 [label="gini = 0.0\nsamples = 1\nvalue = [0, 1]"] ;
128 -> 129 ;
130 [label="gini = 0.0\nsamples = 1\nvalue = [1, 0]"] ;
128 -> 130 ;
131 [label="gini = 0.0\nsamples = 4\nvalue = [4, 0]"] ;
125 -> 131 ;
132 [label="gini = 0.0\nsamples = 1\nvalue = [0, 1]"] ;
124 -> 132 ;
133 [label="gini = 0.0\nsamples = 15\nvalue = [15, 0]"] ;
123 -> 133 ;
134 [label="X[6] <= 2.0\ngini = 0.5\nsamples = 4\nvalue = [2, 2]"] ;
122 -> 134 ;
135 [label="gini = 0.0\nsamples = 2\nvalue = [0, 2]"] ;
134 -> 135 ;
136 [label="gini = 0.0\nsamples = 2\nvalue = [2, 0]"] ;
134 -> 136 ;
137 [label="X[4] <= 4.5\ngini = 0.444\nsamples = 6\nvalue = [4, 2]"] ;
119 -> 137 ;
138 [label="X[1] <= 3.0\ngini = 0.444\nsamples = 3\nvalue = [1, 2]"] ;
137 -> 138 ;
139 [label="gini = 0.0\nsamples = 1\nvalue = [1, 0]"] ;
138 -> 139 ;
140 [label="gini = 0.0\nsamples = 2\nvalue = [0, 2]"] ;
138 -> 140 ;
141 [label="gini = 0.0\nsamples = 3\nvalue = [3, 0]"] ;
137 -> 141 ;
142 [label="X[2] <= 90590.0\ngini = 0.065\nsamples = 237\nvalue = [229, 8]"] ;
112 -> 142 ;
143 [label="X[2] <= 88208.0\ngini = 0.245\nsamples = 21\nvalue = [18, 3]"] ;
142 -> 143 ;
144 [label="X[0] <= 52.5\ngini = 0.18\nsamples = 20\nvalue = [18, 2]"] ;
143 -> 144 ;
145 [label="gini = 0.0\nsamples = 12\nvalue = [12, 0]"] ;
144 -> 145 ;
146 [label="X[3] <= 4.5\ngini = 0.375\nsamples = 8\nvalue = [6, 2]"] ;
144 -> 146 ;
147 [label="X[2] <= 75163.0\ngini = 0.444\nsamples = 3\nvalue = [1, 2]"] ;
146 -> 147 ;
148 [label="gini = 0.0\nsamples = 2\nvalue = [0, 2]"] ;
147 -> 148 ;
149 [label="gini = 0.0\nsamples = 1\nvalue = [1, 0]"] ;
147 -> 149 ;
150 [label="gini = 0.0\nsamples = 5\nvalue = [5, 0]"] ;
146 -> 150 ;
151 [label="gini = 0.0\nsamples = 1\nvalue = [0, 1]"] ;
143 -> 151 ;
152 [label="X[2] <= 439216.5\ngini = 0.045\nsamples = 216\nvalue = [211, 5]"] ;
142 -> 152 ;
153 [label="X[0] <= 39.5\ngini = 0.038\nsamples = 208\nvalue = [204, 4]"] ;
152 -> 153 ;
154 [label="gini = 0.0\nsamples = 83\nvalue = [83, 0]"] ;
153 -> 154 ;
155 [label="X[0] <= 41.5\ngini = 0.062\nsamples = 125\nvalue = [121, 4]"] ;
153 -> 155 ;
156 [label="X[2] <= 230434.5\ngini = 0.298\nsamples = 11\nvalue = [9, 2]"] ;
155 -> 156 ;
157 [label="gini = 0.0\nsamples = 6\nvalue = [6, 0]"] ;
156 -> 157 ;
158 [label="X[6] <= 7.5\ngini = 0.48\nsamples = 5\nvalue = [3, 2]"] ;
156 -> 158 ;
159 [label="X[6] <= 6.0\ngini = 0.444\nsamples = 3\nvalue = [1, 2]"] ;
158 -> 159 ;
160 [label="gini = 0.0\nsamples = 1\nvalue = [1, 0]"] ;
159 -> 160 ;
161 [label="gini = 0.0\nsamples = 2\nvalue = [0, 2]"] ;
159 -> 161 ;
162 [label="gini = 0.0\nsamples = 2\nvalue = [2, 0]"] ;
158 -> 162 ;
163 [label="X[3] <= 2.0\ngini = 0.034\nsamples = 114\nvalue = [112, 2]"] ;
155 -> 163 ;
164 [label="X[6] <= 10.0\ngini = 0.137\nsamples = 27\nvalue = [25, 2]"] ;
163 -> 164 ;
165 [label="gini = 0.0\nsamples = 15\nvalue = [15, 0]"] ;
164 -> 165 ;
166 [label="X[2] <= 193820.0\ngini = 0.278\nsamples = 12\nvalue = [10, 2]"] ;
164 -> 166 ;
167 [label="X[6] <= 13.0\ngini = 0.18\nsamples = 10\nvalue = [9, 1]"] ;
166 -> 167 ;
168 [label="X[2] <= 111936.5\ngini = 0.444\nsamples = 3\nvalue = [2, 1]"] ;
167 -> 168 ;
169 [label="gini = 0.0\nsamples = 1\nvalue = [1, 0]"] ;
168 -> 169 ;
170 [label="X[2] <= 134769.5\ngini = 0.5\nsamples = 2\nvalue = [1, 1]"] ;
168 -> 170 ;
171 [label="gini = 0.0\nsamples = 1\nvalue = [0, 1]"] ;
170 -> 171 ;
172 [label="gini = 0.0\nsamples = 1\nvalue = [1, 0]"] ;
170 -> 172 ;
173 [label="gini = 0.0\nsamples = 7\nvalue = [7, 0]"] ;
167 -> 173 ;
174 [label="X[0] <= 48.5\ngini = 0.5\nsamples = 2\nvalue = [1, 1]"] ;
166 -> 174 ;
175 [label="gini = 0.0\nsamples = 1\nvalue = [0, 1]"] ;
174 -> 175 ;
176 [label="gini = 0.0\nsamples = 1\nvalue = [1, 0]"] ;
174 -> 176 ;
177 [label="gini = 0.0\nsamples = 87\nvalue = [87, 0]"] ;
163 -> 177 ;
178 [label="X[2] <= 445882.5\ngini = 0.219\nsamples = 8\nvalue = [7, 1]"] ;
152 -> 178 ;
179 [label="gini = 0.0\nsamples = 1\nvalue = [0, 1]"] ;
178 -> 179 ;
180 [label="gini = 0.0\nsamples = 7\nvalue = [7, 0]"] ;
178 -> 180 ;
181 [label="X[0] <= 51.0\ngini = 0.444\nsamples = 3\nvalue = [2, 1]"] ;
109 -> 181 ;
182 [label="gini = 0.0\nsamples = 2\nvalue = [2, 0]"] ;
181 -> 182 ;
183 [label="gini = 0.0\nsamples = 1\nvalue = [0, 1]"] ;
181 -> 183 ;
184 [label="X[1] <= 5.5\ngini = 0.191\nsamples = 84\nvalue = [75, 9]"] ;
108 -> 184 ;
185 [label="X[4] <= 4.5\ngini = 0.42\nsamples = 10\nvalue = [7, 3]"] ;
184 -> 185 ;
186 [label="X[4] <= 2.5\ngini = 0.5\nsamples = 6\nvalue = [3, 3]"] ;
185 -> 186 ;
187 [label="gini = 0.0\nsamples = 1\nvalue = [1, 0]"] ;
186 -> 187 ;
188 [label="X[13] <= 24.0\ngini = 0.48\nsamples = 5\nvalue = [2, 3]"] ;
186 -> 188 ;
189 [label="X[0] <= 46.0\ngini = 0.444\nsamples = 3\nvalue = [2, 1]"] ;
188 -> 189 ;
190 [label="gini = 0.0\nsamples = 1\nvalue = [0, 1]"] ;
189 -> 190 ;
191 [label="gini = 0.0\nsamples = 2\nvalue = [2, 0]"] ;
189 -> 191 ;
192 [label="gini = 0.0\nsamples = 2\nvalue = [0, 2]"] ;
188 -> 192 ;
193 [label="gini = 0.0\nsamples = 4\nvalue = [4, 0]"] ;
185 -> 193 ;
194 [label="X[2] <= 40055.5\ngini = 0.149\nsamples = 74\nvalue = [68, 6]"] ;
184 -> 194 ;
195 [label="X[0] <= 60.0\ngini = 0.5\nsamples = 2\nvalue = [1, 1]"] ;
194 -> 195 ;
196 [label="gini = 0.0\nsamples = 1\nvalue = [0, 1]"] ;
195 -> 196 ;
197 [label="gini = 0.0\nsamples = 1\nvalue = [1, 0]"] ;
195 -> 197 ;
198 [label="X[6] <= 10.0\ngini = 0.129\nsamples = 72\nvalue = [67, 5]"] ;
194 -> 198 ;
199 [label="X[3] <= 5.5\ngini = 0.069\nsamples = 56\nvalue = [54, 2]"] ;
198 -> 199 ;
200 [label="gini = 0.0\nsamples = 43\nvalue = [43, 0]"] ;
199 -> 200 ;
201 [label="X[2] <= 271466.5\ngini = 0.26\nsamples = 13\nvalue = [11, 2]"] ;
199 -> 201 ;
202 [label="X[0] <= 42.5\ngini = 0.153\nsamples = 12\nvalue = [11, 1]"] ;
201 -> 202 ;
203 [label="X[0] <= 39.0\ngini = 0.32\nsamples = 5\nvalue = [4, 1]"] ;
202 -> 203 ;
204 [label="gini = 0.0\nsamples = 4\nvalue = [4, 0]"] ;
203 -> 204 ;
205 [label="gini = 0.0\nsamples = 1\nvalue = [0, 1]"] ;
203 -> 205 ;
206 [label="gini = 0.0\nsamples = 7\nvalue = [7, 0]"] ;
202 -> 206 ;
207 [label="gini = 0.0\nsamples = 1\nvalue = [0, 1]"] ;
201 -> 207 ;
208 [label="X[0] <= 57.5\ngini = 0.305\nsamples = 16\nvalue = [13, 3]"] ;
198 -> 208 ;
209 [label="gini = 0.0\nsamples = 8\nvalue = [8, 0]"] ;
208 -> 209 ;
210 [label="X[1] <= 6.5\ngini = 0.469\nsamples = 8\nvalue = [5, 3]"] ;
208 -> 210 ;
211 [label="X[2] <= 148243.5\ngini = 0.48\nsamples = 5\nvalue = [2, 3]"] ;
210 -> 211 ;
212 [label="gini = 0.0\nsamples = 2\nvalue = [0, 2]"] ;
211 -> 212 ;
213 [label="X[2] <= 183592.0\ngini = 0.444\nsamples = 3\nvalue = [2, 1]"] ;
211 -> 213 ;
214 [label="gini = 0.0\nsamples = 2\nvalue = [2, 0]"] ;
213 -> 214 ;
215 [label="gini = 0.0\nsamples = 1\nvalue = [0, 1]"] ;
213 -> 215 ;
216 [label="gini = 0.0\nsamples = 3\nvalue = [3, 0]"] ;
210 -> 216 ;
217 [label="X[0] <= 35.5\ngini = 0.256\nsamples = 159\nvalue = [135, 24]"] ;
101 -> 217 ;
218 [label="X[1] <= 4.5\ngini = 0.089\nsamples = 43\nvalue = [41, 2]"] ;
217 -> 218 ;
219 [label="gini = 0.0\nsamples = 34\nvalue = [34, 0]"] ;
218 -> 219 ;
220 [label="X[1] <= 5.5\ngini = 0.346\nsamples = 9\nvalue = [7, 2]"] ;
218 -> 220 ;
221 [label="gini = 0.0\nsamples = 1\nvalue = [0, 1]"] ;
220 -> 221 ;
222 [label="X[4] <= 3.5\ngini = 0.219\nsamples = 8\nvalue = [7, 1]"] ;
220 -> 222 ;
223 [label="gini = 0.0\nsamples = 1\nvalue = [0, 1]"] ;
222 -> 223 ;
224 [label="gini = 0.0\nsamples = 7\nvalue = [7, 0]"] ;
222 -> 224 ;
225 [label="X[6] <= 11.5\ngini = 0.307\nsamples = 116\nvalue = [94, 22]"] ;
217 -> 225 ;
226 [label="X[0] <= 54.5\ngini = 0.236\nsamples = 88\nvalue = [76, 12]"] ;
225 -> 226 ;
227 [label="X[0] <= 50.5\ngini = 0.341\nsamples = 55\nvalue = [43, 12]"] ;
226 -> 227 ;
228 [label="X[13] <= 35.5\ngini = 0.25\nsamples = 41\nvalue = [35, 6]"] ;
227 -> 228 ;
229 [label="gini = 0.0\nsamples = 14\nvalue = [14, 0]"] ;
228 -> 229 ;
230 [label="X[10] <= 1551.5\ngini = 0.346\nsamples = 27\nvalue = [21, 6]"] ;
228 -> 230 ;
231 [label="X[8] <= 3.0\ngini = 0.311\nsamples = 26\nvalue = [21, 5]"] ;
230 -> 231 ;
232 [label="gini = 0.0\nsamples = 1\nvalue = [0, 1]"] ;
231 -> 232 ;
233 [label="X[6] <= 3.5\ngini = 0.269\nsamples = 25\nvalue = [21, 4]"] ;
231 -> 233 ;
234 [label="gini = 0.0\nsamples = 10\nvalue = [10, 0]"] ;
233 -> 234 ;
235 [label="X[0] <= 47.0\ngini = 0.391\nsamples = 15\nvalue = [11, 4]"] ;
233 -> 235 ;
236 [label="X[0] <= 44.5\ngini = 0.494\nsamples = 9\nvalue = [5, 4]"] ;
235 -> 236 ;
237 [label="X[6] <= 6.5\ngini = 0.278\nsamples = 6\nvalue = [5, 1]"] ;
236 -> 237 ;
238 [label="gini = 0.0\nsamples = 5\nvalue = [5, 0]"] ;
237 -> 238 ;
239 [label="gini = 0.0\nsamples = 1\nvalue = [0, 1]"] ;
237 -> 239 ;
240 [label="gini = 0.0\nsamples = 3\nvalue = [0, 3]"] ;
236 -> 240 ;
241 [label="gini = 0.0\nsamples = 6\nvalue = [6, 0]"] ;
235 -> 241 ;
242 [label="gini = 0.0\nsamples = 1\nvalue = [0, 1]"] ;
230 -> 242 ;
243 [label="X[2] <= 220719.5\ngini = 0.49\nsamples = 14\nvalue = [8, 6]"] ;
227 -> 243 ;
244 [label="X[3] <= 3.5\ngini = 0.48\nsamples = 10\nvalue = [4, 6]"] ;
243 -> 244 ;
245 [label="gini = 0.0\nsamples = 4\nvalue = [0, 4]"] ;
244 -> 245 ;
246 [label="X[2] <= 171702.0\ngini = 0.444\nsamples = 6\nvalue = [4, 2]"] ;
244 -> 246 ;
247 [label="gini = 0.0\nsamples = 3\nvalue = [3, 0]"] ;
246 -> 247 ;
248 [label="X[3] <= 5.0\ngini = 0.444\nsamples = 3\nvalue = [1, 2]"] ;
246 -> 248 ;
249 [label="gini = 0.0\nsamples = 1\nvalue = [1, 0]"] ;
248 -> 249 ;
250 [label="gini = 0.0\nsamples = 2\nvalue = [0, 2]"] ;
248 -> 250 ;
251 [label="gini = 0.0\nsamples = 4\nvalue = [4, 0]"] ;
243 -> 251 ;
252 [label="gini = 0.0\nsamples = 33\nvalue = [33, 0]"] ;
226 -> 252 ;
253 [label="X[2] <= 265004.0\ngini = 0.459\nsamples = 28\nvalue = [18, 10]"] ;
225 -> 253 ;
254 [label="X[2] <= 159629.0\ngini = 0.403\nsamples = 25\nvalue = [18, 7]"] ;
253 -> 254 ;
255 [label="X[3] <= 5.5\ngini = 0.5\nsamples = 14\nvalue = [7, 7]"] ;
254 -> 255 ;
256 [label="X[2] <= 112563.5\ngini = 0.463\nsamples = 11\nvalue = [7, 4]"] ;
255 -> 256 ;
257 [label="gini = 0.0\nsamples = 5\nvalue = [5, 0]"] ;
256 -> 257 ;
258 [label="X[3] <= 3.5\ngini = 0.444\nsamples = 6\nvalue = [2, 4]"] ;
256 -> 258 ;
259 [label="X[6] <= 13.0\ngini = 0.444\nsamples = 3\nvalue = [2, 1]"] ;
258 -> 259 ;
260 [label="gini = 0.0\nsamples = 2\nvalue = [2, 0]"] ;
259 -> 260 ;
261 [label="gini = 0.0\nsamples = 1\nvalue = [0, 1]"] ;
259 -> 261 ;
262 [label="gini = 0.0\nsamples = 3\nvalue = [0, 3]"] ;
258 -> 262 ;
263 [label="gini = 0.0\nsamples = 3\nvalue = [0, 3]"] ;
255 -> 263 ;
264 [label="gini = 0.0\nsamples = 11\nvalue = [11, 0]"] ;
254 -> 264 ;
265 [label="gini = 0.0\nsamples = 3\nvalue = [0, 3]"] ;
253 -> 265 ;
266 [label="X[0] <= 36.5\ngini = 0.429\nsamples = 4766\nvalue = [3279, 1487]"] ;
4 -> 266 ;
267 [label="X[4] <= 9.5\ngini = 0.322\nsamples = 1698\nvalue = [1355, 343]"] ;
266 -> 267 ;
268 [label="X[12] <= 51.5\ngini = 0.245\nsamples = 952\nvalue = [816, 136]"] ;
267 -> 268 ;
269 [label="X[0] <= 28.5\ngini = 0.21\nsamples = 820\nvalue = [722, 98]"] ;
268 -> 269 ;
270 [label="X[5] <= 1.5\ngini = 0.117\nsamples = 273\nvalue = [256, 17]"] ;
269 -> 270 ;
271 [label="gini = 0.0\nsamples = 1\nvalue = [0, 1]"] ;
270 -> 271 ;
272 [label="X[10] <= 4225.0\ngini = 0.111\nsamples = 272\nvalue = [256, 16]"] ;
270 -> 272 ;
273 [label="X[1] <= 6.5\ngini = 0.105\nsamples = 271\nvalue = [256, 15]"] ;
272 -> 273 ;
274 [label="X[12] <= 44.5\ngini = 0.093\nsamples = 267\nvalue = [254, 13]"] ;
273 -> 274 ;
275 [label="X[10] <= 2994.0\ngini = 0.058\nsamples = 200\nvalue = [194, 6]"] ;
274 -> 275 ;
276 [label="X[6] <= 3.5\ngini = 0.05\nsamples = 196\nvalue = [191, 5]"] ;
275 -> 276 ;
277 [label="X[2] <= 178071.0\ngini = 0.121\nsamples = 77\nvalue = [72, 5]"] ;
276 -> 277 ;
278 [label="X[2] <= 176559.0\ngini = 0.245\nsamples = 35\nvalue = [30, 5]"] ;
277 -> 278 ;
279 [label="X[4] <= 8.5\ngini = 0.208\nsamples = 34\nvalue = [30, 4]"] ;
278 -> 279 ;
280 [label="X[2] <= 123195.5\ngini = 0.5\nsamples = 2\nvalue = [1, 1]"] ;
279 -> 280 ;
281 [label="gini = 0.0\nsamples = 1\nvalue = [1, 0]"] ;
280 -> 281 ;
282 [label="gini = 0.0\nsamples = 1\nvalue = [0, 1]"] ;
280 -> 282 ;
283 [label="X[2] <= 118073.5\ngini = 0.17\nsamples = 32\nvalue = [29, 3]"] ;
279 -> 283 ;
284 [label="X[2] <= 114842.0\ngini = 0.278\nsamples = 18\nvalue = [15, 3]"] ;
283 -> 284 ;
285 [label="X[2] <= 64728.5\ngini = 0.208\nsamples = 17\nvalue = [15, 2]"] ;
284 -> 285 ;
286 [label="gini = 0.0\nsamples = 8\nvalue = [8, 0]"] ;
285 -> 286 ;
287 [label="X[2] <= 83258.5\ngini = 0.346\nsamples = 9\nvalue = [7, 2]"] ;
285 -> 287 ;
288 [label="X[0] <= 26.5\ngini = 0.444\nsamples = 3\nvalue = [1, 2]"] ;
287 -> 288 ;
289 [label="gini = 0.0\nsamples = 1\nvalue = [1, 0]"] ;
288 -> 289 ;
290 [label="gini = 0.0\nsamples = 2\nvalue = [0, 2]"] ;
288 -> 290 ;
291 [label="gini = 0.0\nsamples = 6\nvalue = [6, 0]"] ;
287 -> 291 ;
292 [label="gini = 0.0\nsamples = 1\nvalue = [0, 1]"] ;
284 -> 292 ;
293 [label="gini = 0.0\nsamples = 14\nvalue = [14, 0]"] ;
283 -> 293 ;
294 [label="gini = 0.0\nsamples = 1\nvalue = [0, 1]"] ;
278 -> 294 ;
295 [label="gini = 0.0\nsamples = 42\nvalue = [42, 0]"] ;
277 -> 295 ;
296 [label="gini = 0.0\nsamples = 119\nvalue = [119, 0]"] ;
276 -> 296 ;
297 [label="X[10] <= 3257.0\ngini = 0.375\nsamples = 4\nvalue = [3, 1]"] ;
275 -> 297 ;
298 [label="gini = 0.0\nsamples = 1\nvalue = [0, 1]"] ;
297 -> 298 ;
299 [label="gini = 0.0\nsamples = 3\nvalue = [3, 0]"] ;
297 -> 299 ;
300 [label="X[2] <= 32224.5\ngini = 0.187\nsamples = 67\nvalue = [60, 7]"] ;
274 -> 300 ;
301 [label="gini = 0.0\nsamples = 1\nvalue = [0, 1]"] ;
300 -> 301 ;
302 [label="X[0] <= 26.5\ngini = 0.165\nsamples = 66\nvalue = [60, 6]"] ;
300 -> 302 ;
303 [label="X[6] <= 13.0\ngini = 0.05\nsamples = 39\nvalue = [38, 1]"] ;
302 -> 303 ;
304 [label="gini = 0.0\nsamples = 37\nvalue = [37, 0]"] ;
303 -> 304 ;
305 [label="X[2] <= 246405.0\ngini = 0.5\nsamples = 2\nvalue = [1, 1]"] ;
303 -> 305 ;
306 [label="gini = 0.0\nsamples = 1\nvalue = [1, 0]"] ;
305 -> 306 ;
307 [label="gini = 0.0\nsamples = 1\nvalue = [0, 1]"] ;
305 -> 307 ;
308 [label="X[1] <= 5.5\ngini = 0.302\nsamples = 27\nvalue = [22, 5]"] ;
302 -> 308 ;
309 [label="X[12] <= 47.5\ngini = 0.269\nsamples = 25\nvalue = [21, 4]"] ;
308 -> 309 ;
310 [label="X[2] <= 234015.0\ngini = 0.397\nsamples = 11\nvalue = [8, 3]"] ;
309 -> 310 ;
311 [label="X[6] <= 10.5\ngini = 0.245\nsamples = 7\nvalue = [6, 1]"] ;
310 -> 311 ;
312 [label="gini = 0.0\nsamples = 6\nvalue = [6, 0]"] ;
311 -> 312 ;
313 [label="gini = 0.0\nsamples = 1\nvalue = [0, 1]"] ;
311 -> 313 ;
314 [label="X[6] <= 5.5\ngini = 0.5\nsamples = 4\nvalue = [2, 2]"] ;
310 -> 314 ;
315 [label="gini = 0.0\nsamples = 2\nvalue = [0, 2]"] ;
314 -> 315 ;
316 [label="gini = 0.0\nsamples = 2\nvalue = [2, 0]"] ;
314 -> 316 ;
317 [label="X[0] <= 27.5\ngini = 0.133\nsamples = 14\nvalue = [13, 1]"] ;
309 -> 317 ;
318 [label="X[2] <= 194711.5\ngini = 0.375\nsamples = 4\nvalue = [3, 1]"] ;
317 -> 318 ;
319 [label="X[6] <= 5.0\ngini = 0.5\nsamples = 2\nvalue = [1, 1]"] ;
318 -> 319 ;
320 [label="gini = 0.0\nsamples = 1\nvalue = [1, 0]"] ;
319 -> 320 ;
321 [label="gini = 0.0\nsamples = 1\nvalue = [0, 1]"] ;
319 -> 321 ;
322 [label="gini = 0.0\nsamples = 2\nvalue = [2, 0]"] ;
318 -> 322 ;
323 [label="gini = 0.0\nsamples = 10\nvalue = [10, 0]"] ;
317 -> 323 ;
324 [label="X[13] <= 28.5\ngini = 0.5\nsamples = 2\nvalue = [1, 1]"] ;
308 -> 324 ;
325 [label="gini = 0.0\nsamples = 1\nvalue = [1, 0]"] ;
324 -> 325 ;
326 [label="gini = 0.0\nsamples = 1\nvalue = [0, 1]"] ;
324 -> 326 ;
327 [label="X[8] <= 2.5\ngini = 0.5\nsamples = 4\nvalue = [2, 2]"] ;
273 -> 327 ;
328 [label="gini = 0.0\nsamples = 1\nvalue = [0, 1]"] ;
327 -> 328 ;
329 [label="X[12] <= 44.5\ngini = 0.444\nsamples = 3\nvalue = [2, 1]"] ;
327 -> 329 ;
330 [label="gini = 0.0\nsamples = 2\nvalue = [2, 0]"] ;
329 -> 330 ;
331 [label="gini = 0.0\nsamples = 1\nvalue = [0, 1]"] ;
329 -> 331 ;
332 [label="gini = 0.0\nsamples = 1\nvalue = [0, 1]"] ;
272 -> 332 ;
333 [label="X[8] <= 3.5\ngini = 0.252\nsamples = 547\nvalue = [466, 81]"] ;
269 -> 333 ;
334 [label="X[2] <= 76158.5\ngini = 0.034\nsamples = 58\nvalue = [57, 1]"] ;
333 -> 334 ;
335 [label="X[6] <= 11.0\ngini = 0.278\nsamples = 6\nvalue = [5, 1]"] ;
334 -> 335 ;
336 [label="gini = 0.0\nsamples = 5\nvalue = [5, 0]"] ;
335 -> 336 ;
337 [label="gini = 0.0\nsamples = 1\nvalue = [0, 1]"] ;
335 -> 337 ;
338 [label="gini = 0.0\nsamples = 52\nvalue = [52, 0]"] ;
334 -> 338 ;
339 [label="X[2] <= 88409.0\ngini = 0.274\nsamples = 489\nvalue = [409, 80]"] ;
333 -> 339 ;
340 [label="X[0] <= 35.5\ngini = 0.114\nsamples = 66\nvalue = [62, 4]"] ;
339 -> 340 ;
341 [label="X[12] <= 49.0\ngini = 0.062\nsamples = 62\nvalue = [60, 2]"] ;
340 -> 341 ;
342 [label="gini = 0.0\nsamples = 52\nvalue = [52, 0]"] ;
341 -> 342 ;
343 [label="X[6] <= 11.0\ngini = 0.32\nsamples = 10\nvalue = [8, 2]"] ;
341 -> 343 ;
344 [label="gini = 0.0\nsamples = 7\nvalue = [7, 0]"] ;
343 -> 344 ;
345 [label="X[1] <= 5.0\ngini = 0.444\nsamples = 3\nvalue = [1, 2]"] ;
343 -> 345 ;
346 [label="gini = 0.0\nsamples = 2\nvalue = [0, 2]"] ;
345 -> 346 ;
347 [label="gini = 0.0\nsamples = 1\nvalue = [1, 0]"] ;
345 -> 347 ;
348 [label="X[2] <= 27045.0\ngini = 0.5\nsamples = 4\nvalue = [2, 2]"] ;
340 -> 348 ;
349 [label="gini = 0.0\nsamples = 1\nvalue = [0, 1]"] ;
348 -> 349 ;
350 [label="X[12] <= 32.5\ngini = 0.444\nsamples = 3\nvalue = [2, 1]"] ;
348 -> 350 ;
351 [label="gini = 0.0\nsamples = 1\nvalue = [0, 1]"] ;
350 -> 351 ;
352 [label="gini = 0.0\nsamples = 2\nvalue = [2, 0]"] ;
350 -> 352 ;
353 [label="X[2] <= 99477.5\ngini = 0.295\nsamples = 423\nvalue = [347, 76]"] ;
339 -> 353 ;
354 [label="X[12] <= 42.5\ngini = 0.49\nsamples = 14\nvalue = [8, 6]"] ;
353 -> 354 ;
355 [label="X[6] <= 13.0\ngini = 0.32\nsamples = 10\nvalue = [8, 2]"] ;
354 -> 355 ;
356 [label="X[2] <= 98834.5\ngini = 0.198\nsamples = 9\nvalue = [8, 1]"] ;
355 -> 356 ;
357 [label="gini = 0.0\nsamples = 8\nvalue = [8, 0]"] ;
356 -> 357 ;
358 [label="gini = 0.0\nsamples = 1\nvalue = [0, 1]"] ;
356 -> 358 ;
359 [label="gini = 0.0\nsamples = 1\nvalue = [0, 1]"] ;
355 -> 359 ;
360 [label="gini = 0.0\nsamples = 4\nvalue = [0, 4]"] ;
354 -> 360 ;
361 [label="X[2] <= 125520.5\ngini = 0.284\nsamples = 409\nvalue = [339, 70]"] ;
353 -> 361 ;
362 [label="X[1] <= 5.5\ngini = 0.14\nsamples = 66\nvalue = [61, 5]"] ;
361 -> 362 ;
363 [label="X[0] <= 31.5\ngini = 0.069\nsamples = 56\nvalue = [54, 2]"] ;
362 -> 363 ;
364 [label="X[2] <= 113601.0\ngini = 0.18\nsamples = 20\nvalue = [18, 2]"] ;
363 -> 364 ;
365 [label="X[2] <= 112873.5\ngini = 0.26\nsamples = 13\nvalue = [11, 2]"] ;
364 -> 365 ;
366 [label="X[6] <= 8.5\ngini = 0.153\nsamples = 12\nvalue = [11, 1]"] ;
365 -> 366 ;
367 [label="gini = 0.0\nsamples = 8\nvalue = [8, 0]"] ;
366 -> 367 ;
368 [label="X[6] <= 10.5\ngini = 0.375\nsamples = 4\nvalue = [3, 1]"] ;
366 -> 368 ;
369 [label="gini = 0.0\nsamples = 1\nvalue = [0, 1]"] ;
368 -> 369 ;
370 [label="gini = 0.0\nsamples = 3\nvalue = [3, 0]"] ;
368 -> 370 ;
371 [label="gini = 0.0\nsamples = 1\nvalue = [0, 1]"] ;
365 -> 371 ;
372 [label="gini = 0.0\nsamples = 7\nvalue = [7, 0]"] ;
364 -> 372 ;
373 [label="gini = 0.0\nsamples = 36\nvalue = [36, 0]"] ;
363 -> 373 ;
374 [label="X[0] <= 31.5\ngini = 0.42\nsamples = 10\nvalue = [7, 3]"] ;
362 -> 374 ;
375 [label="gini = 0.0\nsamples = 4\nvalue = [4, 0]"] ;
374 -> 375 ;
376 [label="X[1] <= 6.5\ngini = 0.5\nsamples = 6\nvalue = [3, 3]"] ;
374 -> 376 ;
377 [label="X[2] <= 109766.5\ngini = 0.375\nsamples = 4\nvalue = [3, 1]"] ;
376 -> 377 ;
378 [label="gini = 0.0\nsamples = 1\nvalue = [0, 1]"] ;
377 -> 378 ;
379 [label="gini = 0.0\nsamples = 3\nvalue = [3, 0]"] ;
377 -> 379 ;
380 [label="gini = 0.0\nsamples = 2\nvalue = [0, 2]"] ;
376 -> 380 ;
381 [label="X[2] <= 126622.0\ngini = 0.307\nsamples = 343\nvalue = [278, 65]"] ;
361 -> 381 ;
382 [label="X[6] <= 6.5\ngini = 0.444\nsamples = 3\nvalue = [1, 2]"] ;
381 -> 382 ;
383 [label="gini = 0.0\nsamples = 1\nvalue = [1, 0]"] ;
382 -> 383 ;
384 [label="gini = 0.0\nsamples = 2\nvalue = [0, 2]"] ;
382 -> 384 ;
385 [label="X[13] <= 40.0\ngini = 0.302\nsamples = 340\nvalue = [277, 63]"] ;
381 -> 385 ;
386 [label="X[2] <= 304735.0\ngini = 0.299\nsamples = 339\nvalue = [277, 62]"] ;
385 -> 386 ;
387 [label="X[1] <= 1.5\ngini = 0.279\nsamples = 281\nvalue = [234, 47]"] ;
386 -> 387 ;
388 [label="X[0] <= 31.5\ngini = 0.5\nsamples = 4\nvalue = [2, 2]"] ;
387 -> 388 ;
389 [label="gini = 0.0\nsamples = 2\nvalue = [0, 2]"] ;
388 -> 389 ;
390 [label="gini = 0.0\nsamples = 2\nvalue = [2, 0]"] ;
388 -> 390 ;
391 [label="X[2] <= 155409.0\ngini = 0.272\nsamples = 277\nvalue = [232, 45]"] ;
387 -> 391 ;
392 [label="X[2] <= 154157.0\ngini = 0.375\nsamples = 48\nvalue = [36, 12]"] ;
391 -> 392 ;
393 [label="X[1] <= 3.0\ngini = 0.34\nsamples = 46\nvalue = [36, 10]"] ;
392 -> 393 ;
394 [label="gini = 0.0\nsamples = 2\nvalue = [0, 2]"] ;
393 -> 394 ;
395 [label="X[12] <= 49.0\ngini = 0.298\nsamples = 44\nvalue = [36, 8]"] ;
393 -> 395 ;
396 [label="X[0] <= 31.5\ngini = 0.25\nsamples = 41\nvalue = [35, 6]"] ;
395 -> 396 ;
397 [label="X[6] <= 13.0\ngini = 0.408\nsamples = 14\nvalue = [10, 4]"] ;
396 -> 397 ;
398 [label="X[2] <= 151229.0\ngini = 0.298\nsamples = 11\nvalue = [9, 2]"] ;
397 -> 398 ;
399 [label="X[12] <= 46.5\ngini = 0.18\nsamples = 10\nvalue = [9, 1]"] ;
398 -> 399 ;
400 [label="gini = 0.0\nsamples = 9\nvalue = [9, 0]"] ;
399 -> 400 ;
401 [label="gini = 0.0\nsamples = 1\nvalue = [0, 1]"] ;
399 -> 401 ;
402 [label="gini = 0.0\nsamples = 1\nvalue = [0, 1]"] ;
398 -> 402 ;
403 [label="X[10] <= 2506.5\ngini = 0.444\nsamples = 3\nvalue = [1, 2]"] ;
397 -> 403 ;
404 [label="gini = 0.0\nsamples = 2\nvalue = [0, 2]"] ;
403 -> 404 ;
405 [label="gini = 0.0\nsamples = 1\nvalue = [1, 0]"] ;
403 -> 405 ;
406 [label="X[6] <= 11.5\ngini = 0.137\nsamples = 27\nvalue = [25, 2]"] ;
396 -> 406 ;
407 [label="X[1] <= 4.5\ngini = 0.083\nsamples = 23\nvalue = [22, 1]"] ;
406 -> 407 ;
408 [label="gini = 0.0\nsamples = 18\nvalue = [18, 0]"] ;
407 -> 408 ;
409 [label="X[1] <= 5.5\ngini = 0.32\nsamples = 5\nvalue = [4, 1]"] ;
407 -> 409 ;
410 [label="gini = 0.0\nsamples = 1\nvalue = [0, 1]"] ;
409 -> 410 ;
411 [label="gini = 0.0\nsamples = 4\nvalue = [4, 0]"] ;
409 -> 411 ;
412 [label="X[6] <= 13.0\ngini = 0.375\nsamples = 4\nvalue = [3, 1]"] ;
406 -> 412 ;
413 [label="gini = 0.0\nsamples = 1\nvalue = [0, 1]"] ;
412 -> 413 ;
414 [label="gini = 0.0\nsamples = 3\nvalue = [3, 0]"] ;
412 -> 414 ;
415 [label="X[2] <= 153762.5\ngini = 0.444\nsamples = 3\nvalue = [1, 2]"] ;
395 -> 415 ;
416 [label="gini = 0.0\nsamples = 2\nvalue = [0, 2]"] ;
415 -> 416 ;
417 [label="gini = 0.0\nsamples = 1\nvalue = [1, 0]"] ;
415 -> 417 ;
418 [label="gini = 0.0\nsamples = 2\nvalue = [0, 2]"] ;
392 -> 418 ;
419 [label="X[2] <= 169183.0\ngini = 0.247\nsamples = 229\nvalue = [196, 33]"] ;
391 -> 419 ;
420 [label="X[6] <= 2.0\ngini = 0.056\nsamples = 35\nvalue = [34, 1]"] ;
419 -> 420 ;
421 [label="X[12] <= 42.5\ngini = 0.444\nsamples = 3\nvalue = [2, 1]"] ;
420 -> 421 ;
422 [label="gini = 0.0\nsamples = 1\nvalue = [1, 0]"] ;
421 -> 422 ;
423 [label="X[2] <= 157606.5\ngini = 0.5\nsamples = 2\nvalue = [1, 1]"] ;
421 -> 423 ;
424 [label="gini = 0.0\nsamples = 1\nvalue = [1, 0]"] ;
423 -> 424 ;
425 [label="gini = 0.0\nsamples = 1\nvalue = [0, 1]"] ;
423 -> 425 ;
426 [label="gini = 0.0\nsamples = 32\nvalue = [32, 0]"] ;
420 -> 426 ;
427 [label="X[2] <= 171209.0\ngini = 0.275\nsamples = 194\nvalue = [162, 32]"] ;
419 -> 427 ;
428 [label="X[12] <= 42.5\ngini = 0.48\nsamples = 5\nvalue = [2, 3]"] ;
427 -> 428 ;
429 [label="gini = 0.0\nsamples = 2\nvalue = [2, 0]"] ;
428 -> 429 ;
430 [label="gini = 0.0\nsamples = 3\nvalue = [0, 3]"] ;
428 -> 430 ;
431 [label="X[2] <= 177007.5\ngini = 0.26\nsamples = 189\nvalue = [160, 29]"] ;
427 -> 431 ;
432 [label="gini = 0.0\nsamples = 11\nvalue = [11, 0]"] ;
431 -> 432 ;
433 [label="X[2] <= 177761.0\ngini = 0.273\nsamples = 178\nvalue = [149, 29]"] ;
431 -> 433 ;
434 [label="gini = 0.0\nsamples = 2\nvalue = [0, 2]"] ;
433 -> 434 ;
435 [label="X[2] <= 266736.5\ngini = 0.26\nsamples = 176\nvalue = [149, 27]"] ;
433 -> 435 ;
436 [label="X[2] <= 263714.0\ngini = 0.281\nsamples = 148\nvalue = [123, 25]"] ;
435 -> 436 ;
437 [label="X[2] <= 208434.0\ngini = 0.273\nsamples = 147\nvalue = [123, 24]"] ;
436 -> 437 ;
438 [label="X[2] <= 190703.0\ngini = 0.202\nsamples = 79\nvalue = [70, 9]"] ;
437 -> 438 ;
439 [label="X[2] <= 190259.0\ngini = 0.284\nsamples = 35\nvalue = [29, 6]"] ;
438 -> 439 ;
440 [label="X[0] <= 30.5\ngini = 0.219\nsamples = 32\nvalue = [28, 4]"] ;
439 -> 440 ;
441 [label="gini = 0.0\nsamples = 11\nvalue = [11, 0]"] ;
440 -> 441 ;
442 [label="X[0] <= 31.5\ngini = 0.308\nsamples = 21\nvalue = [17, 4]"] ;
440 -> 442 ;
443 [label="gini = 0.0\nsamples = 1\nvalue = [0, 1]"] ;
442 -> 443 ;
444 [label="X[2] <= 183445.5\ngini = 0.255\nsamples = 20\nvalue = [17, 3]"] ;
442 -> 444 ;
445 [label="gini = 0.0\nsamples = 7\nvalue = [7, 0]"] ;
444 -> 445 ;
446 [label="X[2] <= 188122.5\ngini = 0.355\nsamples = 13\nvalue = [10, 3]"] ;
444 -> 446 ;
447 [label="X[2] <= 185332.0\ngini = 0.5\nsamples = 6\nvalue = [3, 3]"] ;
446 -> 447 ;
448 [label="X[0] <= 33.5\ngini = 0.375\nsamples = 4\nvalue = [3, 1]"] ;
447 -> 448 ;
449 [label="X[12] <= 30.0\ngini = 0.5\nsamples = 2\nvalue = [1, 1]"] ;
448 -> 449 ;
450 [label="gini = 0.0\nsamples = 1\nvalue = [1, 0]"] ;
449 -> 450 ;
451 [label="gini = 0.0\nsamples = 1\nvalue = [0, 1]"] ;
449 -> 451 ;
452 [label="gini = 0.0\nsamples = 2\nvalue = [2, 0]"] ;
448 -> 452 ;
453 [label="gini = 0.0\nsamples = 2\nvalue = [0, 2]"] ;
447 -> 453 ;
454 [label="gini = 0.0\nsamples = 7\nvalue = [7, 0]"] ;
446 -> 454 ;
455 [label="X[13] <= 30.5\ngini = 0.444\nsamples = 3\nvalue = [1, 2]"] ;
439 -> 455 ;
456 [label="gini = 0.0\nsamples = 1\nvalue = [1, 0]"] ;
455 -> 456 ;
457 [label="gini = 0.0\nsamples = 2\nvalue = [0, 2]"] ;
455 -> 457 ;
458 [label="X[0] <= 31.5\ngini = 0.127\nsamples = 44\nvalue = [41, 3]"] ;
438 -> 458 ;
459 [label="X[1] <= 5.0\ngini = 0.305\nsamples = 16\nvalue = [13, 3]"] ;
458 -> 459 ;
460 [label="X[0] <= 29.5\ngini = 0.231\nsamples = 15\nvalue = [13, 2]"] ;
459 -> 460 ;
461 [label="gini = 0.0\nsamples = 5\nvalue = [5, 0]"] ;
460 -> 461 ;
462 [label="X[12] <= 49.0\ngini = 0.32\nsamples = 10\nvalue = [8, 2]"] ;
460 -> 462 ;
463 [label="X[2] <= 205051.5\ngini = 0.219\nsamples = 8\nvalue = [7, 1]"] ;
462 -> 463 ;
464 [label="gini = 0.0\nsamples = 6\nvalue = [6, 0]"] ;
463 -> 464 ;
465 [label="X[6] <= 10.0\ngini = 0.5\nsamples = 2\nvalue = [1, 1]"] ;
463 -> 465 ;
466 [label="gini = 0.0\nsamples = 1\nvalue = [0, 1]"] ;
465 -> 466 ;
467 [label="gini = 0.0\nsamples = 1\nvalue = [1, 0]"] ;
465 -> 467 ;
468 [label="X[6] <= 13.0\ngini = 0.5\nsamples = 2\nvalue = [1, 1]"] ;
462 -> 468 ;
469 [label="gini = 0.0\nsamples = 1\nvalue = [0, 1]"] ;
468 -> 469 ;
470 [label="gini = 0.0\nsamples = 1\nvalue = [1, 0]"] ;
468 -> 470 ;
471 [label="gini = 0.0\nsamples = 1\nvalue = [0, 1]"] ;
459 -> 471 ;
472 [label="gini = 0.0\nsamples = 28\nvalue = [28, 0]"] ;
458 -> 472 ;
473 [label="X[2] <= 209210.0\ngini = 0.344\nsamples = 68\nvalue = [53, 15]"] ;
437 -> 473 ;
474 [label="gini = 0.0\nsamples = 2\nvalue = [0, 2]"] ;
473 -> 474 ;
475 [label="X[2] <= 211705.0\ngini = 0.316\nsamples = 66\nvalue = [53, 13]"] ;
473 -> 475 ;
476 [label="gini = 0.0\nsamples = 6\nvalue = [6, 0]"] ;
475 -> 476 ;
477 [label="X[2] <= 213729.0\ngini = 0.339\nsamples = 60\nvalue = [47, 13]"] ;
475 -> 477 ;
478 [label="gini = 0.0\nsamples = 1\nvalue = [0, 1]"] ;
477 -> 478 ;
479 [label="X[2] <= 216428.0\ngini = 0.324\nsamples = 59\nvalue = [47, 12]"] ;
477 -> 479 ;
480 [label="gini = 0.0\nsamples = 5\nvalue = [5, 0]"] ;
479 -> 480 ;
481 [label="X[1] <= 6.5\ngini = 0.346\nsamples = 54\nvalue = [42, 12]"] ;
479 -> 481 ;
482 [label="X[2] <= 216955.5\ngini = 0.329\nsamples = 53\nvalue = [42, 11]"] ;
481 -> 482 ;
483 [label="gini = 0.0\nsamples = 1\nvalue = [0, 1]"] ;
482 -> 483 ;
484 [label="X[0] <= 30.5\ngini = 0.311\nsamples = 52\nvalue = [42, 10]"] ;
482 -> 484 ;
485 [label="X[0] <= 29.5\ngini = 0.133\nsamples = 14\nvalue = [13, 1]"] ;
484 -> 485 ;
486 [label="X[6] <= 5.0\ngini = 0.375\nsamples = 4\nvalue = [3, 1]"] ;
485 -> 486 ;
487 [label="gini = 0.0\nsamples = 3\nvalue = [3, 0]"] ;
486 -> 487 ;
488 [label="gini = 0.0\nsamples = 1\nvalue = [0, 1]"] ;
486 -> 488 ;
489 [label="gini = 0.0\nsamples = 10\nvalue = [10, 0]"] ;
485 -> 489 ;
490 [label="X[0] <= 31.5\ngini = 0.361\nsamples = 38\nvalue = [29, 9]"] ;
484 -> 490 ;
491 [label="X[2] <= 221360.5\ngini = 0.48\nsamples = 5\nvalue = [2, 3]"] ;
490 -> 491 ;
492 [label="gini = 0.0\nsamples = 2\nvalue = [0, 2]"] ;
491 -> 492 ;
493 [label="X[2] <= 251433.5\ngini = 0.444\nsamples = 3\nvalue = [2, 1]"] ;
491 -> 493 ;
494 [label="gini = 0.0\nsamples = 2\nvalue = [2, 0]"] ;
493 -> 494 ;
495 [label="gini = 0.0\nsamples = 1\nvalue = [0, 1]"] ;
493 -> 495 ;
496 [label="X[2] <= 225240.5\ngini = 0.298\nsamples = 33\nvalue = [27, 6]"] ;
490 -> 496 ;
497 [label="gini = 0.0\nsamples = 8\nvalue = [8, 0]"] ;
496 -> 497 ;
498 [label="X[2] <= 235638.5\ngini = 0.365\nsamples = 25\nvalue = [19, 6]"] ;
496 -> 498 ;
499 [label="X[1] <= 3.0\ngini = 0.49\nsamples = 7\nvalue = [3, 4]"] ;
498 -> 499 ;
500 [label="gini = 0.0\nsamples = 2\nvalue = [2, 0]"] ;
499 -> 500 ;
501 [label="X[13] <= 25.0\ngini = 0.32\nsamples = 5\nvalue = [1, 4]"] ;
499 -> 501 ;
502 [label="gini = 0.0\nsamples = 1\nvalue = [1, 0]"] ;
501 -> 502 ;
503 [label="gini = 0.0\nsamples = 4\nvalue = [0, 4]"] ;
501 -> 503 ;
504 [label="X[6] <= 3.5\ngini = 0.198\nsamples = 18\nvalue = [16, 2]"] ;
498 -> 504 ;
505 [label="X[0] <= 32.5\ngini = 0.408\nsamples = 7\nvalue = [5, 2]"] ;
504 -> 505 ;
506 [label="gini = 0.0\nsamples = 1\nvalue = [0, 1]"] ;
505 -> 506 ;
507 [label="X[2] <= 243544.0\ngini = 0.278\nsamples = 6\nvalue = [5, 1]"] ;
505 -> 507 ;
508 [label="X[12] <= 42.5\ngini = 0.5\nsamples = 2\nvalue = [1, 1]"] ;
507 -> 508 ;
509 [label="gini = 0.0\nsamples = 1\nvalue = [0, 1]"] ;
508 -> 509 ;
510 [label="gini = 0.0\nsamples = 1\nvalue = [1, 0]"] ;
508 -> 510 ;
511 [label="gini = 0.0\nsamples = 4\nvalue = [4, 0]"] ;
507 -> 511 ;
512 [label="gini = 0.0\nsamples = 11\nvalue = [11, 0]"] ;
504 -> 512 ;
513 [label="gini = 0.0\nsamples = 1\nvalue = [0, 1]"] ;
481 -> 513 ;
514 [label="gini = 0.0\nsamples = 1\nvalue = [0, 1]"] ;
436 -> 514 ;
515 [label="X[2] <= 286067.5\ngini = 0.133\nsamples = 28\nvalue = [26, 2]"] ;
435 -> 515 ;
516 [label="gini = 0.0\nsamples = 15\nvalue = [15, 0]"] ;
515 -> 516 ;
517 [label="X[2] <= 286395.0\ngini = 0.26\nsamples = 13\nvalue = [11, 2]"] ;
515 -> 517 ;
518 [label="gini = 0.0\nsamples = 1\nvalue = [0, 1]"] ;
517 -> 518 ;
519 [label="X[6] <= 10.0\ngini = 0.153\nsamples = 12\nvalue = [11, 1]"] ;
517 -> 519 ;
520 [label="gini = 0.0\nsamples = 9\nvalue = [9, 0]"] ;
519 -> 520 ;
521 [label="X[6] <= 13.0\ngini = 0.444\nsamples = 3\nvalue = [2, 1]"] ;
519 -> 521 ;
522 [label="gini = 0.0\nsamples = 1\nvalue = [0, 1]"] ;
521 -> 522 ;
523 [label="gini = 0.0\nsamples = 2\nvalue = [2, 0]"] ;
521 -> 523 ;
524 [label="X[2] <= 344920.5\ngini = 0.383\nsamples = 58\nvalue = [43, 15]"] ;
386 -> 524 ;
525 [label="X[6] <= 13.0\ngini = 0.473\nsamples = 26\nvalue = [16, 10]"] ;
524 -> 525 ;
526 [label="X[6] <= 9.0\ngini = 0.496\nsamples = 22\nvalue = [12, 10]"] ;
525 -> 526 ;
527 [label="X[2] <= 306148.5\ngini = 0.444\nsamples = 18\nvalue = [12, 6]"] ;
526 -> 527 ;
528 [label="gini = 0.0\nsamples = 1\nvalue = [0, 1]"] ;
527 -> 528 ;
529 [label="X[2] <= 343419.0\ngini = 0.415\nsamples = 17\nvalue = [12, 5]"] ;
527 -> 529 ;
530 [label="X[1] <= 5.5\ngini = 0.375\nsamples = 16\nvalue = [12, 4]"] ;
529 -> 530 ;
531 [label="X[0] <= 34.5\ngini = 0.32\nsamples = 15\nvalue = [12, 3]"] ;
530 -> 531 ;
532 [label="gini = 0.0\nsamples = 8\nvalue = [8, 0]"] ;
531 -> 532 ;
533 [label="X[6] <= 5.5\ngini = 0.49\nsamples = 7\nvalue = [4, 3]"] ;
531 -> 533 ;
534 [label="X[1] <= 3.0\ngini = 0.375\nsamples = 4\nvalue = [1, 3]"] ;
533 -> 534 ;
535 [label="X[2] <= 319352.0\ngini = 0.5\nsamples = 2\nvalue = [1, 1]"] ;
534 -> 535 ;
536 [label="gini = 0.0\nsamples = 1\nvalue = [0, 1]"] ;
535 -> 536 ;
537 [label="gini = 0.0\nsamples = 1\nvalue = [1, 0]"] ;
535 -> 537 ;
538 [label="gini = 0.0\nsamples = 2\nvalue = [0, 2]"] ;
534 -> 538 ;
539 [label="gini = 0.0\nsamples = 3\nvalue = [3, 0]"] ;
533 -> 539 ;
540 [label="gini = 0.0\nsamples = 1\nvalue = [0, 1]"] ;
530 -> 540 ;
541 [label="gini = 0.0\nsamples = 1\nvalue = [0, 1]"] ;
529 -> 541 ;
542 [label="gini = 0.0\nsamples = 4\nvalue = [0, 4]"] ;
526 -> 542 ;
543 [label="gini = 0.0\nsamples = 4\nvalue = [4, 0]"] ;
525 -> 543 ;
544 [label="X[12] <= 47.5\ngini = 0.264\nsamples = 32\nvalue = [27, 5]"] ;
524 -> 544 ;
545 [label="X[3] <= 6.5\ngini = 0.191\nsamples = 28\nvalue = [25, 3]"] ;
544 -> 545 ;
546 [label="X[2] <= 385157.5\ngini = 0.5\nsamples = 2\nvalue = [1, 1]"] ;
545 -> 546 ;
547 [label="gini = 0.0\nsamples = 1\nvalue = [1, 0]"] ;
546 -> 547 ;
548 [label="gini = 0.0\nsamples = 1\nvalue = [0, 1]"] ;
546 -> 548 ;
549 [label="X[0] <= 30.5\ngini = 0.142\nsamples = 26\nvalue = [24, 2]"] ;
545 -> 549 ;
550 [label="X[6] <= 5.0\ngini = 0.375\nsamples = 4\nvalue = [3, 1]"] ;
549 -> 550 ;
551 [label="X[2] <= 514449.0\ngini = 0.5\nsamples = 2\nvalue = [1, 1]"] ;
550 -> 551 ;
552 [label="gini = 0.0\nsamples = 1\nvalue = [0, 1]"] ;
551 -> 552 ;
553 [label="gini = 0.0\nsamples = 1\nvalue = [1, 0]"] ;
551 -> 553 ;
554 [label="gini = 0.0\nsamples = 2\nvalue = [2, 0]"] ;
550 -> 554 ;
555 [label="X[2] <= 389310.0\ngini = 0.087\nsamples = 22\nvalue = [21, 1]"] ;
549 -> 555 ;
556 [label="X[2] <= 380475.5\ngini = 0.219\nsamples = 8\nvalue = [7, 1]"] ;
555 -> 556 ;
557 [label="gini = 0.0\nsamples = 7\nvalue = [7, 0]"] ;
556 -> 557 ;
558 [label="gini = 0.0\nsamples = 1\nvalue = [0, 1]"] ;
556 -> 558 ;
559 [label="gini = 0.0\nsamples = 14\nvalue = [14, 0]"] ;
555 -> 559 ;
560 [label="X[0] <= 33.5\ngini = 0.5\nsamples = 4\nvalue = [2, 2]"] ;
544 -> 560 ;
561 [label="gini = 0.0\nsamples = 2\nvalue = [0, 2]"] ;
560 -> 561 ;
562 [label="gini = 0.0\nsamples = 2\nvalue = [2, 0]"] ;
560 -> 562 ;
563 [label="gini = 0.0\nsamples = 1\nvalue = [0, 1]"] ;
385 -> 563 ;
564 [label="X[1] <= 3.0\ngini = 0.41\nsamples = 132\nvalue = [94, 38]"] ;
268 -> 564 ;
565 [label="X[10] <= 1442.5\ngini = 0.32\nsamples = 5\nvalue = [1, 4]"] ;
564 -> 565 ;
566 [label="gini = 0.0\nsamples = 4\nvalue = [0, 4]"] ;
565 -> 566 ;
567 [label="gini = 0.0\nsamples = 1\nvalue = [1, 0]"] ;
565 -> 567 ;
568 [label="X[0] <= 31.5\ngini = 0.392\nsamples = 127\nvalue = [93, 34]"] ;
564 -> 568 ;
569 [label="X[13] <= 4.0\ngini = 0.293\nsamples = 73\nvalue = [60, 13]"] ;
568 -> 569 ;
570 [label="gini = 0.0\nsamples = 1\nvalue = [0, 1]"] ;
569 -> 570 ;
571 [label="X[2] <= 34977.5\ngini = 0.278\nsamples = 72\nvalue = [60, 12]"] ;
569 -> 571 ;
572 [label="gini = 0.0\nsamples = 1\nvalue = [0, 1]"] ;
571 -> 572 ;
573 [label="X[2] <= 420719.5\ngini = 0.262\nsamples = 71\nvalue = [60, 11]"] ;
571 -> 573 ;
574 [label="X[2] <= 213707.0\ngini = 0.245\nsamples = 70\nvalue = [60, 10]"] ;
573 -> 574 ;
575 [label="X[2] <= 198382.0\ngini = 0.315\nsamples = 46\nvalue = [37, 9]"] ;
574 -> 575 ;
576 [label="X[2] <= 150135.0\ngini = 0.188\nsamples = 38\nvalue = [34, 4]"] ;
575 -> 576 ;
577 [label="X[2] <= 141327.0\ngini = 0.269\nsamples = 25\nvalue = [21, 4]"] ;
576 -> 577 ;
578 [label="X[1] <= 5.5\ngini = 0.219\nsamples = 24\nvalue = [21, 3]"] ;
577 -> 578 ;
579 [label="X[0] <= 29.5\ngini = 0.165\nsamples = 22\nvalue = [20, 2]"] ;
578 -> 579 ;
580 [label="gini = 0.0\nsamples = 15\nvalue = [15, 0]"] ;
579 -> 580 ;
581 [label="X[12] <= 57.5\ngini = 0.408\nsamples = 7\nvalue = [5, 2]"] ;
579 -> 581 ;
582 [label="X[2] <= 54107.0\ngini = 0.278\nsamples = 6\nvalue = [5, 1]"] ;
581 -> 582 ;
583 [label="X[0] <= 30.5\ngini = 0.5\nsamples = 2\nvalue = [1, 1]"] ;
582 -> 583 ;
584 [label="gini = 0.0\nsamples = 1\nvalue = [0, 1]"] ;
583 -> 584 ;
585 [label="gini = 0.0\nsamples = 1\nvalue = [1, 0]"] ;
583 -> 585 ;
586 [label="gini = 0.0\nsamples = 4\nvalue = [4, 0]"] ;
582 -> 586 ;
587 [label="gini = 0.0\nsamples = 1\nvalue = [0, 1]"] ;
581 -> 587 ;
588 [label="X[12] <= 78.0\ngini = 0.5\nsamples = 2\nvalue = [1, 1]"] ;
578 -> 588 ;
589 [label="gini = 0.0\nsamples = 1\nvalue = [0, 1]"] ;
588 -> 589 ;
590 [label="gini = 0.0\nsamples = 1\nvalue = [1, 0]"] ;
588 -> 590 ;
591 [label="gini = 0.0\nsamples = 1\nvalue = [0, 1]"] ;
577 -> 591 ;
592 [label="gini = 0.0\nsamples = 13\nvalue = [13, 0]"] ;
576 -> 592 ;
593 [label="X[12] <= 61.0\ngini = 0.469\nsamples = 8\nvalue = [3, 5]"] ;
575 -> 593 ;
594 [label="X[0] <= 25.5\ngini = 0.32\nsamples = 5\nvalue = [1, 4]"] ;
593 -> 594 ;
595 [label="X[0] <= 24.5\ngini = 0.5\nsamples = 2\nvalue = [1, 1]"] ;
594 -> 595 ;
596 [label="gini = 0.0\nsamples = 1\nvalue = [0, 1]"] ;
595 -> 596 ;
597 [label="gini = 0.0\nsamples = 1\nvalue = [1, 0]"] ;
595 -> 597 ;
598 [label="gini = 0.0\nsamples = 3\nvalue = [0, 3]"] ;
594 -> 598 ;
599 [label="X[2] <= 205349.5\ngini = 0.444\nsamples = 3\nvalue = [2, 1]"] ;
593 -> 599 ;
600 [label="gini = 0.0\nsamples = 1\nvalue = [0, 1]"] ;
599 -> 600 ;
601 [label="gini = 0.0\nsamples = 2\nvalue = [2, 0]"] ;
599 -> 601 ;
602 [label="X[8] <= 2.5\ngini = 0.08\nsamples = 24\nvalue = [23, 1]"] ;
574 -> 602 ;
603 [label="X[12] <= 70.0\ngini = 0.5\nsamples = 2\nvalue = [1, 1]"] ;
602 -> 603 ;
604 [label="gini = 0.0\nsamples = 1\nvalue = [1, 0]"] ;
603 -> 604 ;
605 [label="gini = 0.0\nsamples = 1\nvalue = [0, 1]"] ;
603 -> 605 ;
606 [label="gini = 0.0\nsamples = 22\nvalue = [22, 0]"] ;
602 -> 606 ;
607 [label="gini = 0.0\nsamples = 1\nvalue = [0, 1]"] ;
573 -> 607 ;
608 [label="X[13] <= 37.5\ngini = 0.475\nsamples = 54\nvalue = [33, 21]"] ;
568 -> 608 ;
609 [label="gini = 0.0\nsamples = 3\nvalue = [0, 3]"] ;
608 -> 609 ;
610 [label="X[2] <= 232152.0\ngini = 0.457\nsamples = 51\nvalue = [33, 18]"] ;
608 -> 610 ;
611 [label="X[12] <= 65.5\ngini = 0.489\nsamples = 40\nvalue = [23, 17]"] ;
610 -> 611 ;
612 [label="X[6] <= 13.5\ngini = 0.499\nsamples = 31\nvalue = [15, 16]"] ;
611 -> 612 ;
613 [label="X[11] <= 836.0\ngini = 0.472\nsamples = 21\nvalue = [8, 13]"] ;
612 -> 613 ;
614 [label="X[2] <= 159645.0\ngini = 0.455\nsamples = 20\nvalue = [7, 13]"] ;
613 -> 614 ;
615 [label="X[1] <= 5.5\ngini = 0.245\nsamples = 7\nvalue = [1, 6]"] ;
614 -> 615 ;
616 [label="gini = 0.0\nsamples = 5\nvalue = [0, 5]"] ;
615 -> 616 ;
617 [label="X[2] <= 109354.0\ngini = 0.5\nsamples = 2\nvalue = [1, 1]"] ;
615 -> 617 ;
618 [label="gini = 0.0\nsamples = 1\nvalue = [1, 0]"] ;
617 -> 618 ;
619 [label="gini = 0.0\nsamples = 1\nvalue = [0, 1]"] ;
617 -> 619 ;
620 [label="X[2] <= 215343.0\ngini = 0.497\nsamples = 13\nvalue = [6, 7]"] ;
614 -> 620 ;
621 [label="X[6] <= 12.5\ngini = 0.496\nsamples = 11\nvalue = [6, 5]"] ;
620 -> 621 ;
622 [label="X[2] <= 190854.0\ngini = 0.48\nsamples = 10\nvalue = [6, 4]"] ;
621 -> 622 ;
623 [label="X[12] <= 63.5\ngini = 0.32\nsamples = 5\nvalue = [4, 1]"] ;
622 -> 623 ;
624 [label="gini = 0.0\nsamples = 3\nvalue = [3, 0]"] ;
623 -> 624 ;
625 [label="X[0] <= 34.5\ngini = 0.5\nsamples = 2\nvalue = [1, 1]"] ;
623 -> 625 ;
626 [label="gini = 0.0\nsamples = 1\nvalue = [1, 0]"] ;
625 -> 626 ;
627 [label="gini = 0.0\nsamples = 1\nvalue = [0, 1]"] ;
625 -> 627 ;
628 [label="X[6] <= 3.5\ngini = 0.48\nsamples = 5\nvalue = [2, 3]"] ;
622 -> 628 ;
629 [label="X[12] <= 57.5\ngini = 0.444\nsamples = 3\nvalue = [2, 1]"] ;
628 -> 629 ;
630 [label="gini = 0.0\nsamples = 1\nvalue = [0, 1]"] ;
629 -> 630 ;
631 [label="gini = 0.0\nsamples = 2\nvalue = [2, 0]"] ;
629 -> 631 ;
632 [label="gini = 0.0\nsamples = 2\nvalue = [0, 2]"] ;
628 -> 632 ;
633 [label="gini = 0.0\nsamples = 1\nvalue = [0, 1]"] ;
621 -> 633 ;
634 [label="gini = 0.0\nsamples = 2\nvalue = [0, 2]"] ;
620 -> 634 ;
635 [label="gini = 0.0\nsamples = 1\nvalue = [1, 0]"] ;
613 -> 635 ;
636 [label="X[0] <= 32.5\ngini = 0.42\nsamples = 10\nvalue = [7, 3]"] ;
612 -> 636 ;
637 [label="gini = 0.0\nsamples = 1\nvalue = [0, 1]"] ;
636 -> 637 ;
638 [label="X[2] <= 144761.0\ngini = 0.346\nsamples = 9\nvalue = [7, 2]"] ;
636 -> 638 ;
639 [label="gini = 0.0\nsamples = 5\nvalue = [5, 0]"] ;
638 -> 639 ;
640 [label="X[2] <= 194781.0\ngini = 0.5\nsamples = 4\nvalue = [2, 2]"] ;
638 -> 640 ;
641 [label="gini = 0.0\nsamples = 2\nvalue = [0, 2]"] ;
640 -> 641 ;
642 [label="gini = 0.0\nsamples = 2\nvalue = [2, 0]"] ;
640 -> 642 ;
643 [label="X[0] <= 33.5\ngini = 0.198\nsamples = 9\nvalue = [8, 1]"] ;
611 -> 643 ;
644 [label="X[12] <= 75.0\ngini = 0.5\nsamples = 2\nvalue = [1, 1]"] ;
643 -> 644 ;
645 [label="gini = 0.0\nsamples = 1\nvalue = [1, 0]"] ;
644 -> 645 ;
646 [label="gini = 0.0\nsamples = 1\nvalue = [0, 1]"] ;
644 -> 646 ;
647 [label="gini = 0.0\nsamples = 7\nvalue = [7, 0]"] ;
643 -> 647 ;
648 [label="X[2] <= 426548.0\ngini = 0.165\nsamples = 11\nvalue = [10, 1]"] ;
610 -> 648 ;
649 [label="gini = 0.0\nsamples = 10\nvalue = [10, 0]"] ;
648 -> 649 ;
650 [label="gini = 0.0\nsamples = 1\nvalue = [0, 1]"] ;
648 -> 650 ;
651 [label="X[2] <= 149922.0\ngini = 0.401\nsamples = 746\nvalue = [539, 207]"] ;
267 -> 651 ;
652 [label="X[2] <= 27275.0\ngini = 0.313\nsamples = 263\nvalue = [212, 51]"] ;
651 -> 652 ;
653 [label="X[8] <= 1.5\ngini = 0.375\nsamples = 8\nvalue = [2, 6]"] ;
652 -> 653 ;
654 [label="gini = 0.0\nsamples = 2\nvalue = [2, 0]"] ;
653 -> 654 ;
655 [label="gini = 0.0\nsamples = 6\nvalue = [0, 6]"] ;
653 -> 655 ;
656 [label="X[1] <= 4.5\ngini = 0.291\nsamples = 255\nvalue = [210, 45]"] ;
652 -> 656 ;
657 [label="X[6] <= 2.0\ngini = 0.315\nsamples = 220\nvalue = [177, 43]"] ;
656 -> 657 ;
658 [label="X[2] <= 107825.0\ngini = 0.469\nsamples = 16\nvalue = [10, 6]"] ;
657 -> 658 ;
659 [label="X[2] <= 53587.0\ngini = 0.32\nsamples = 10\nvalue = [8, 2]"] ;
658 -> 659 ;
660 [label="X[2] <= 36384.5\ngini = 0.48\nsamples = 5\nvalue = [3, 2]"] ;
659 -> 660 ;
661 [label="gini = 0.0\nsamples = 3\nvalue = [3, 0]"] ;
660 -> 661 ;
662 [label="gini = 0.0\nsamples = 2\nvalue = [0, 2]"] ;
660 -> 662 ;
663 [label="gini = 0.0\nsamples = 5\nvalue = [5, 0]"] ;
659 -> 663 ;
664 [label="X[0] <= 28.0\ngini = 0.444\nsamples = 6\nvalue = [2, 4]"] ;
658 -> 664 ;
665 [label="X[2] <= 113184.5\ngini = 0.444\nsamples = 3\nvalue = [2, 1]"] ;
664 -> 665 ;
666 [label="gini = 0.0\nsamples = 1\nvalue = [0, 1]"] ;
665 -> 666 ;
667 [label="gini = 0.0\nsamples = 2\nvalue = [2, 0]"] ;
665 -> 667 ;
668 [label="gini = 0.0\nsamples = 3\nvalue = [0, 3]"] ;
664 -> 668 ;
669 [label="X[6] <= 13.5\ngini = 0.297\nsamples = 204\nvalue = [167, 37]"] ;
657 -> 669 ;
670 [label="X[13] <= 17.0\ngini = 0.28\nsamples = 190\nvalue = [158, 32]"] ;
669 -> 670 ;
671 [label="X[13] <= 10.0\ngini = 0.5\nsamples = 4\nvalue = [2, 2]"] ;
670 -> 671 ;
672 [label="X[12] <= 39.0\ngini = 0.444\nsamples = 3\nvalue = [2, 1]"] ;
671 -> 672 ;
673 [label="gini = 0.0\nsamples = 1\nvalue = [0, 1]"] ;
672 -> 673 ;
674 [label="gini = 0.0\nsamples = 2\nvalue = [2, 0]"] ;
672 -> 674 ;
675 [label="gini = 0.0\nsamples = 1\nvalue = [0, 1]"] ;
671 -> 675 ;
676 [label="X[2] <= 77066.5\ngini = 0.271\nsamples = 186\nvalue = [156, 30]"] ;
670 -> 676 ;
677 [label="X[2] <= 35856.5\ngini = 0.182\nsamples = 69\nvalue = [62, 7]"] ;
676 -> 677 ;
678 [label="X[2] <= 34027.5\ngini = 0.332\nsamples = 19\nvalue = [15, 4]"] ;
677 -> 678 ;
679 [label="gini = 0.0\nsamples = 10\nvalue = [10, 0]"] ;
678 -> 679 ;
680 [label="X[12] <= 42.5\ngini = 0.494\nsamples = 9\nvalue = [5, 4]"] ;
678 -> 680 ;
681 [label="X[8] <= 2.5\ngini = 0.444\nsamples = 6\nvalue = [2, 4]"] ;
680 -> 681 ;
682 [label="gini = 0.0\nsamples = 1\nvalue = [1, 0]"] ;
681 -> 682 ;
683 [label="X[2] <= 34303.5\ngini = 0.32\nsamples = 5\nvalue = [1, 4]"] ;
681 -> 683 ;
684 [label="X[0] <= 32.5\ngini = 0.5\nsamples = 2\nvalue = [1, 1]"] ;
683 -> 684 ;
685 [label="gini = 0.0\nsamples = 1\nvalue = [1, 0]"] ;
684 -> 685 ;
686 [label="gini = 0.0\nsamples = 1\nvalue = [0, 1]"] ;
684 -> 686 ;
687 [label="gini = 0.0\nsamples = 3\nvalue = [0, 3]"] ;
683 -> 687 ;
688 [label="gini = 0.0\nsamples = 3\nvalue = [3, 0]"] ;
680 -> 688 ;
689 [label="X[12] <= 47.0\ngini = 0.113\nsamples = 50\nvalue = [47, 3]"] ;
677 -> 689 ;
690 [label="gini = 0.0\nsamples = 34\nvalue = [34, 0]"] ;
689 -> 690 ;
691 [label="X[3] <= 11.5\ngini = 0.305\nsamples = 16\nvalue = [13, 3]"] ;
689 -> 691 ;
692 [label="X[2] <= 40037.0\ngini = 0.49\nsamples = 7\nvalue = [4, 3]"] ;
691 -> 692 ;
693 [label="gini = 0.0\nsamples = 2\nvalue = [2, 0]"] ;
692 -> 693 ;
694 [label="X[2] <= 55428.5\ngini = 0.48\nsamples = 5\nvalue = [2, 3]"] ;
692 -> 694 ;
695 [label="gini = 0.0\nsamples = 2\nvalue = [0, 2]"] ;
694 -> 695 ;
696 [label="X[4] <= 11.5\ngini = 0.444\nsamples = 3\nvalue = [2, 1]"] ;
694 -> 696 ;
697 [label="gini = 0.0\nsamples = 2\nvalue = [2, 0]"] ;
696 -> 697 ;
698 [label="gini = 0.0\nsamples = 1\nvalue = [0, 1]"] ;
696 -> 698 ;
699 [label="gini = 0.0\nsamples = 9\nvalue = [9, 0]"] ;
691 -> 699 ;
700 [label="X[2] <= 90072.0\ngini = 0.316\nsamples = 117\nvalue = [94, 23]"] ;
676 -> 700 ;
701 [label="X[2] <= 89363.5\ngini = 0.49\nsamples = 14\nvalue = [8, 6]"] ;
700 -> 701 ;
702 [label="X[2] <= 87328.5\ngini = 0.444\nsamples = 12\nvalue = [8, 4]"] ;
701 -> 702 ;
703 [label="X[0] <= 35.5\ngini = 0.5\nsamples = 8\nvalue = [4, 4]"] ;
702 -> 703 ;
704 [label="X[0] <= 31.5\ngini = 0.444\nsamples = 6\nvalue = [4, 2]"] ;
703 -> 704 ;
705 [label="X[2] <= 78576.0\ngini = 0.444\nsamples = 3\nvalue = [1, 2]"] ;
704 -> 705 ;
706 [label="gini = 0.0\nsamples = 1\nvalue = [1, 0]"] ;
705 -> 706 ;
707 [label="gini = 0.0\nsamples = 2\nvalue = [0, 2]"] ;
705 -> 707 ;
708 [label="gini = 0.0\nsamples = 3\nvalue = [3, 0]"] ;
704 -> 708 ;
709 [label="gini = 0.0\nsamples = 2\nvalue = [0, 2]"] ;
703 -> 709 ;
710 [label="gini = 0.0\nsamples = 4\nvalue = [4, 0]"] ;
702 -> 710 ;
711 [label="gini = 0.0\nsamples = 2\nvalue = [0, 2]"] ;
701 -> 711 ;
712 [label="X[2] <= 112568.5\ngini = 0.276\nsamples = 103\nvalue = [86, 17]"] ;
700 -> 712 ;
713 [label="X[8] <= 1.5\ngini = 0.114\nsamples = 33\nvalue = [31, 2]"] ;
712 -> 713 ;
714 [label="gini = 0.0\nsamples = 1\nvalue = [0, 1]"] ;
713 -> 714 ;
715 [label="X[0] <= 34.5\ngini = 0.061\nsamples = 32\nvalue = [31, 1]"] ;
713 -> 715 ;
716 [label="gini = 0.0\nsamples = 28\nvalue = [28, 0]"] ;
715 -> 716 ;
717 [label="X[2] <= 107557.0\ngini = 0.375\nsamples = 4\nvalue = [3, 1]"] ;
715 -> 717 ;
718 [label="gini = 0.0\nsamples = 1\nvalue = [0, 1]"] ;
717 -> 718 ;
719 [label="gini = 0.0\nsamples = 3\nvalue = [3, 0]"] ;
717 -> 719 ;
720 [label="X[2] <= 113038.0\ngini = 0.337\nsamples = 70\nvalue = [55, 15]"] ;
712 -> 720 ;
721 [label="gini = 0.0\nsamples = 1\nvalue = [0, 1]"] ;
720 -> 721 ;
722 [label="X[0] <= 27.5\ngini = 0.323\nsamples = 69\nvalue = [55, 14]"] ;
720 -> 722 ;
723 [label="gini = 0.0\nsamples = 12\nvalue = [12, 0]"] ;
722 -> 723 ;
724 [label="X[1] <= 1.5\ngini = 0.371\nsamples = 57\nvalue = [43, 14]"] ;
722 -> 724 ;
725 [label="gini = 0.0\nsamples = 1\nvalue = [0, 1]"] ;
724 -> 725 ;
726 [label="X[2] <= 137497.5\ngini = 0.357\nsamples = 56\nvalue = [43, 13]"] ;
724 -> 726 ;
727 [label="X[6] <= 3.5\ngini = 0.418\nsamples = 37\nvalue = [26, 11]"] ;
726 -> 727 ;
728 [label="X[12] <= 52.5\ngini = 0.18\nsamples = 10\nvalue = [9, 1]"] ;
727 -> 728 ;
729 [label="gini = 0.0\nsamples = 8\nvalue = [8, 0]"] ;
728 -> 729 ;
730 [label="X[12] <= 57.5\ngini = 0.5\nsamples = 2\nvalue = [1, 1]"] ;
728 -> 730 ;
731 [label="gini = 0.0\nsamples = 1\nvalue = [0, 1]"] ;
730 -> 731 ;
732 [label="gini = 0.0\nsamples = 1\nvalue = [1, 0]"] ;
730 -> 732 ;
733 [label="X[2] <= 132643.5\ngini = 0.466\nsamples = 27\nvalue = [17, 10]"] ;
727 -> 733 ;
734 [label="X[12] <= 39.0\ngini = 0.423\nsamples = 23\nvalue = [16, 7]"] ;
733 -> 734 ;
735 [label="gini = 0.0\nsamples = 1\nvalue = [0, 1]"] ;
734 -> 735 ;
736 [label="X[2] <= 125698.0\ngini = 0.397\nsamples = 22\nvalue = [16, 6]"] ;
734 -> 736 ;
737 [label="X[2] <= 124756.0\ngini = 0.469\nsamples = 16\nvalue = [10, 6]"] ;
736 -> 737 ;
738 [label="X[12] <= 52.0\ngini = 0.408\nsamples = 14\nvalue = [10, 4]"] ;
737 -> 738 ;
739 [label="X[6] <= 5.5\ngini = 0.48\nsamples = 10\nvalue = [6, 4]"] ;
738 -> 739 ;
740 [label="gini = 0.0\nsamples = 2\nvalue = [0, 2]"] ;
739 -> 740 ;
741 [label="X[6] <= 7.0\ngini = 0.375\nsamples = 8\nvalue = [6, 2]"] ;
739 -> 741 ;
742 [label="gini = 0.0\nsamples = 4\nvalue = [4, 0]"] ;
741 -> 742 ;
743 [label="X[4] <= 10.5\ngini = 0.5\nsamples = 4\nvalue = [2, 2]"] ;
741 -> 743 ;
744 [label="X[12] <= 47.5\ngini = 0.444\nsamples = 3\nvalue = [1, 2]"] ;
743 -> 744 ;
745 [label="gini = 0.0\nsamples = 2\nvalue = [0, 2]"] ;
744 -> 745 ;
746 [label="gini = 0.0\nsamples = 1\nvalue = [1, 0]"] ;
744 -> 746 ;
747 [label="gini = 0.0\nsamples = 1\nvalue = [1, 0]"] ;
743 -> 747 ;
748 [label="gini = 0.0\nsamples = 4\nvalue = [4, 0]"] ;
738 -> 748 ;
749 [label="gini = 0.0\nsamples = 2\nvalue = [0, 2]"] ;
737 -> 749 ;
750 [label="gini = 0.0\nsamples = 6\nvalue = [6, 0]"] ;
736 -> 750 ;
751 [label="X[6] <= 11.5\ngini = 0.375\nsamples = 4\nvalue = [1, 3]"] ;
733 -> 751 ;
752 [label="gini = 0.0\nsamples = 3\nvalue = [0, 3]"] ;
751 -> 752 ;
753 [label="gini = 0.0\nsamples = 1\nvalue = [1, 0]"] ;
751 -> 753 ;
754 [label="X[12] <= 62.5\ngini = 0.188\nsamples = 19\nvalue = [17, 2]"] ;
726 -> 754 ;
755 [label="X[11] <= 742.5\ngini = 0.105\nsamples = 18\nvalue = [17, 1]"] ;
754 -> 755 ;
756 [label="gini = 0.0\nsamples = 15\nvalue = [15, 0]"] ;
755 -> 756 ;
757 [label="X[2] <= 148539.5\ngini = 0.444\nsamples = 3\nvalue = [2, 1]"] ;
755 -> 757 ;
758 [label="gini = 0.0\nsamples = 2\nvalue = [2, 0]"] ;
757 -> 758 ;
759 [label="gini = 0.0\nsamples = 1\nvalue = [0, 1]"] ;
757 -> 759 ;
760 [label="gini = 0.0\nsamples = 1\nvalue = [0, 1]"] ;
754 -> 760 ;
761 [label="X[12] <= 42.5\ngini = 0.459\nsamples = 14\nvalue = [9, 5]"] ;
669 -> 761 ;
762 [label="X[12] <= 35.0\ngini = 0.245\nsamples = 7\nvalue = [6, 1]"] ;
761 -> 762 ;
763 [label="gini = 0.0\nsamples = 1\nvalue = [0, 1]"] ;
762 -> 763 ;
764 [label="gini = 0.0\nsamples = 6\nvalue = [6, 0]"] ;
762 -> 764 ;
765 [label="X[2] <= 87111.0\ngini = 0.49\nsamples = 7\nvalue = [3, 4]"] ;
761 -> 765 ;
766 [label="X[2] <= 44501.0\ngini = 0.48\nsamples = 5\nvalue = [3, 2]"] ;
765 -> 766 ;
767 [label="X[4] <= 10.5\ngini = 0.444\nsamples = 3\nvalue = [1, 2]"] ;
766 -> 767 ;
768 [label="gini = 0.0\nsamples = 2\nvalue = [0, 2]"] ;
767 -> 768 ;
769 [label="gini = 0.0\nsamples = 1\nvalue = [1, 0]"] ;
767 -> 769 ;
770 [label="gini = 0.0\nsamples = 2\nvalue = [2, 0]"] ;
766 -> 770 ;
771 [label="gini = 0.0\nsamples = 2\nvalue = [0, 2]"] ;
765 -> 771 ;
772 [label="X[3] <= 7.5\ngini = 0.108\nsamples = 35\nvalue = [33, 2]"] ;
656 -> 772 ;
773 [label="gini = 0.0\nsamples = 1\nvalue = [0, 1]"] ;
772 -> 773 ;
774 [label="X[2] <= 115573.5\ngini = 0.057\nsamples = 34\nvalue = [33, 1]"] ;
772 -> 774 ;
775 [label="gini = 0.0\nsamples = 24\nvalue = [24, 0]"] ;
774 -> 775 ;
776 [label="X[2] <= 118150.5\ngini = 0.18\nsamples = 10\nvalue = [9, 1]"] ;
774 -> 776 ;
777 [label="gini = 0.0\nsamples = 1\nvalue = [0, 1]"] ;
776 -> 777 ;
778 [label="gini = 0.0\nsamples = 9\nvalue = [9, 0]"] ;
776 -> 778 ;
779 [label="X[0] <= 30.5\ngini = 0.437\nsamples = 483\nvalue = [327, 156]"] ;
651 -> 779 ;
780 [label="X[6] <= 12.5\ngini = 0.359\nsamples = 222\nvalue = [170, 52]"] ;
779 -> 780 ;
781 [label="X[0] <= 24.5\ngini = 0.324\nsamples = 197\nvalue = [157, 40]"] ;
780 -> 781 ;
782 [label="X[12] <= 68.5\ngini = 0.105\nsamples = 36\nvalue = [34, 2]"] ;
781 -> 782 ;
783 [label="X[6] <= 2.0\ngini = 0.056\nsamples = 35\nvalue = [34, 1]"] ;
782 -> 783 ;
784 [label="X[2] <= 339707.5\ngini = 0.444\nsamples = 3\nvalue = [2, 1]"] ;
783 -> 784 ;
785 [label="gini = 0.0\nsamples = 2\nvalue = [2, 0]"] ;
784 -> 785 ;
786 [label="gini = 0.0\nsamples = 1\nvalue = [0, 1]"] ;
784 -> 786 ;
787 [label="gini = 0.0\nsamples = 32\nvalue = [32, 0]"] ;
783 -> 787 ;
788 [label="gini = 0.0\nsamples = 1\nvalue = [0, 1]"] ;
782 -> 788 ;
789 [label="X[8] <= 1.5\ngini = 0.361\nsamples = 161\nvalue = [123, 38]"] ;
781 -> 789 ;
790 [label="X[13] <= 23.5\ngini = 0.49\nsamples = 7\nvalue = [3, 4]"] ;
789 -> 790 ;
791 [label="gini = 0.0\nsamples = 2\nvalue = [0, 2]"] ;
790 -> 791 ;
792 [label="X[12] <= 47.5\ngini = 0.48\nsamples = 5\nvalue = [3, 2]"] ;
790 -> 792 ;
793 [label="gini = 0.0\nsamples = 2\nvalue = [2, 0]"] ;
792 -> 793 ;
794 [label="X[2] <= 303560.5\ngini = 0.444\nsamples = 3\nvalue = [1, 2]"] ;
792 -> 794 ;
795 [label="gini = 0.0\nsamples = 2\nvalue = [0, 2]"] ;
794 -> 795 ;
796 [label="gini = 0.0\nsamples = 1\nvalue = [1, 0]"] ;
794 -> 796 ;
797 [label="X[2] <= 158843.5\ngini = 0.344\nsamples = 154\nvalue = [120, 34]"] ;
789 -> 797 ;
798 [label="X[0] <= 26.5\ngini = 0.496\nsamples = 11\nvalue = [6, 5]"] ;
797 -> 798 ;
799 [label="X[6] <= 11.5\ngini = 0.32\nsamples = 5\nvalue = [4, 1]"] ;
798 -> 799 ;
800 [label="gini = 0.0\nsamples = 4\nvalue = [4, 0]"] ;
799 -> 800 ;
801 [label="gini = 0.0\nsamples = 1\nvalue = [0, 1]"] ;
799 -> 801 ;
802 [label="X[2] <= 153644.0\ngini = 0.444\nsamples = 6\nvalue = [2, 4]"] ;
798 -> 802 ;
803 [label="X[12] <= 42.5\ngini = 0.444\nsamples = 3\nvalue = [2, 1]"] ;
802 -> 803 ;
804 [label="gini = 0.0\nsamples = 1\nvalue = [0, 1]"] ;
803 -> 804 ;
805 [label="gini = 0.0\nsamples = 2\nvalue = [2, 0]"] ;
803 -> 805 ;
806 [label="gini = 0.0\nsamples = 3\nvalue = [0, 3]"] ;
802 -> 806 ;
807 [label="X[2] <= 577805.5\ngini = 0.323\nsamples = 143\nvalue = [114, 29]"] ;
797 -> 807 ;
808 [label="X[5] <= 1.5\ngini = 0.317\nsamples = 142\nvalue = [114, 28]"] ;
807 -> 808 ;
809 [label="gini = 0.0\nsamples = 1\nvalue = [0, 1]"] ;
808 -> 809 ;
810 [label="X[2] <= 393185.0\ngini = 0.31\nsamples = 141\nvalue = [114, 27]"] ;
808 -> 810 ;
811 [label="X[2] <= 382449.0\ngini = 0.333\nsamples = 128\nvalue = [101, 27]"] ;
810 -> 811 ;
812 [label="X[0] <= 28.5\ngini = 0.32\nsamples = 125\nvalue = [100, 25]"] ;
811 -> 812 ;
813 [label="X[2] <= 191756.5\ngini = 0.372\nsamples = 77\nvalue = [58, 19]"] ;
812 -> 813 ;
814 [label="X[3] <= 7.5\ngini = 0.188\nsamples = 19\nvalue = [17, 2]"] ;
813 -> 814 ;
815 [label="gini = 0.0\nsamples = 1\nvalue = [0, 1]"] ;
814 -> 815 ;
816 [label="X[2] <= 174627.0\ngini = 0.105\nsamples = 18\nvalue = [17, 1]"] ;
814 -> 816 ;
817 [label="X[3] <= 11.5\ngini = 0.5\nsamples = 2\nvalue = [1, 1]"] ;
816 -> 817 ;
818 [label="gini = 0.0\nsamples = 1\nvalue = [1, 0]"] ;
817 -> 818 ;
819 [label="gini = 0.0\nsamples = 1\nvalue = [0, 1]"] ;
817 -> 819 ;
820 [label="gini = 0.0\nsamples = 16\nvalue = [16, 0]"] ;
816 -> 820 ;
821 [label="X[4] <= 10.5\ngini = 0.414\nsamples = 58\nvalue = [41, 17]"] ;
813 -> 821 ;
822 [label="X[2] <= 197888.0\ngini = 0.454\nsamples = 46\nvalue = [30, 16]"] ;
821 -> 822 ;
823 [label="gini = 0.0\nsamples = 2\nvalue = [0, 2]"] ;
822 -> 823 ;
824 [label="X[6] <= 6.5\ngini = 0.434\nsamples = 44\nvalue = [30, 14]"] ;
822 -> 824 ;
825 [label="X[2] <= 207733.0\ngini = 0.491\nsamples = 23\nvalue = [13, 10]"] ;
824 -> 825 ;
826 [label="gini = 0.0\nsamples = 2\nvalue = [2, 0]"] ;
825 -> 826 ;
827 [label="X[2] <= 267687.0\ngini = 0.499\nsamples = 21\nvalue = [11, 10]"] ;
825 -> 827 ;
828 [label="X[12] <= 42.5\ngini = 0.49\nsamples = 14\nvalue = [6, 8]"] ;
827 -> 828 ;
829 [label="X[0] <= 25.5\ngini = 0.496\nsamples = 11\nvalue = [6, 5]"] ;
828 -> 829 ;
830 [label="gini = 0.0\nsamples = 3\nvalue = [3, 0]"] ;
829 -> 830 ;
831 [label="X[10] <= 1414.5\ngini = 0.469\nsamples = 8\nvalue = [3, 5]"] ;
829 -> 831 ;
832 [label="X[2] <= 224056.0\ngini = 0.408\nsamples = 7\nvalue = [2, 5]"] ;
831 -> 832 ;
833 [label="gini = 0.0\nsamples = 4\nvalue = [0, 4]"] ;
832 -> 833 ;
834 [label="X[6] <= 2.0\ngini = 0.444\nsamples = 3\nvalue = [2, 1]"] ;
832 -> 834 ;
835 [label="gini = 0.0\nsamples = 1\nvalue = [0, 1]"] ;
834 -> 835 ;
836 [label="gini = 0.0\nsamples = 2\nvalue = [2, 0]"] ;
834 -> 836 ;
837 [label="gini = 0.0\nsamples = 1\nvalue = [1, 0]"] ;
831 -> 837 ;
838 [label="gini = 0.0\nsamples = 3\nvalue = [0, 3]"] ;
828 -> 838 ;
839 [label="X[2] <= 320390.0\ngini = 0.408\nsamples = 7\nvalue = [5, 2]"] ;
827 -> 839 ;
840 [label="gini = 0.0\nsamples = 4\nvalue = [4, 0]"] ;
839 -> 840 ;
841 [label="X[12] <= 55.0\ngini = 0.444\nsamples = 3\nvalue = [1, 2]"] ;
839 -> 841 ;
842 [label="gini = 0.0\nsamples = 2\nvalue = [0, 2]"] ;
841 -> 842 ;
843 [label="gini = 0.0\nsamples = 1\nvalue = [1, 0]"] ;
841 -> 843 ;
844 [label="X[2] <= 293717.5\ngini = 0.308\nsamples = 21\nvalue = [17, 4]"] ;
824 -> 844 ;
845 [label="X[2] <= 215188.5\ngini = 0.219\nsamples = 16\nvalue = [14, 2]"] ;
844 -> 845 ;
846 [label="X[2] <= 212454.5\ngini = 0.408\nsamples = 7\nvalue = [5, 2]"] ;
845 -> 846 ;
847 [label="X[0] <= 27.5\ngini = 0.278\nsamples = 6\nvalue = [5, 1]"] ;
846 -> 847 ;
848 [label="gini = 0.0\nsamples = 4\nvalue = [4, 0]"] ;
847 -> 848 ;
849 [label="X[2] <= 203433.0\ngini = 0.5\nsamples = 2\nvalue = [1, 1]"] ;
847 -> 849 ;
850 [label="gini = 0.0\nsamples = 1\nvalue = [0, 1]"] ;
849 -> 850 ;
851 [label="gini = 0.0\nsamples = 1\nvalue = [1, 0]"] ;
849 -> 851 ;
852 [label="gini = 0.0\nsamples = 1\nvalue = [0, 1]"] ;
846 -> 852 ;
853 [label="gini = 0.0\nsamples = 9\nvalue = [9, 0]"] ;
845 -> 853 ;
854 [label="X[2] <= 306013.0\ngini = 0.48\nsamples = 5\nvalue = [3, 2]"] ;
844 -> 854 ;
855 [label="gini = 0.0\nsamples = 2\nvalue = [0, 2]"] ;
854 -> 855 ;
856 [label="gini = 0.0\nsamples = 3\nvalue = [3, 0]"] ;
854 -> 856 ;
857 [label="X[2] <= 259938.5\ngini = 0.153\nsamples = 12\nvalue = [11, 1]"] ;
821 -> 857 ;
858 [label="gini = 0.0\nsamples = 9\nvalue = [9, 0]"] ;
857 -> 858 ;
859 [label="X[6] <= 4.0\ngini = 0.444\nsamples = 3\nvalue = [2, 1]"] ;
857 -> 859 ;
860 [label="gini = 0.0\nsamples = 1\nvalue = [0, 1]"] ;
859 -> 860 ;
861 [label="gini = 0.0\nsamples = 2\nvalue = [2, 0]"] ;
859 -> 861 ;
862 [label="X[2] <= 231483.5\ngini = 0.219\nsamples = 48\nvalue = [42, 6]"] ;
812 -> 862 ;
863 [label="X[2] <= 231228.0\ngini = 0.32\nsamples = 30\nvalue = [24, 6]"] ;
862 -> 863 ;
864 [label="X[6] <= 11.5\ngini = 0.285\nsamples = 29\nvalue = [24, 5]"] ;
863 -> 864 ;
865 [label="X[13] <= 31.0\ngini = 0.219\nsamples = 24\nvalue = [21, 3]"] ;
864 -> 865 ;
866 [label="X[4] <= 10.5\ngini = 0.5\nsamples = 2\nvalue = [1, 1]"] ;
865 -> 866 ;
867 [label="gini = 0.0\nsamples = 1\nvalue = [0, 1]"] ;
866 -> 867 ;
868 [label="gini = 0.0\nsamples = 1\nvalue = [1, 0]"] ;
866 -> 868 ;
869 [label="X[0] <= 29.5\ngini = 0.165\nsamples = 22\nvalue = [20, 2]"] ;
865 -> 869 ;
870 [label="gini = 0.0\nsamples = 10\nvalue = [10, 0]"] ;
869 -> 870 ;
871 [label="X[2] <= 195606.0\ngini = 0.278\nsamples = 12\nvalue = [10, 2]"] ;
869 -> 871 ;
872 [label="gini = 0.0\nsamples = 6\nvalue = [6, 0]"] ;
871 -> 872 ;
873 [label="X[2] <= 206295.5\ngini = 0.444\nsamples = 6\nvalue = [4, 2]"] ;
871 -> 873 ;
874 [label="X[1] <= 2.0\ngini = 0.444\nsamples = 3\nvalue = [1, 2]"] ;
873 -> 874 ;
875 [label="gini = 0.0\nsamples = 1\nvalue = [1, 0]"] ;
874 -> 875 ;
876 [label="gini = 0.0\nsamples = 2\nvalue = [0, 2]"] ;
874 -> 876 ;
877 [label="gini = 0.0\nsamples = 3\nvalue = [3, 0]"] ;
873 -> 877 ;
878 [label="X[1] <= 5.0\ngini = 0.48\nsamples = 5\nvalue = [3, 2]"] ;
864 -> 878 ;
879 [label="X[4] <= 10.5\ngini = 0.444\nsamples = 3\nvalue = [1, 2]"] ;
878 -> 879 ;
880 [label="gini = 0.0\nsamples = 1\nvalue = [1, 0]"] ;
879 -> 880 ;
881 [label="gini = 0.0\nsamples = 2\nvalue = [0, 2]"] ;
879 -> 881 ;
882 [label="gini = 0.0\nsamples = 2\nvalue = [2, 0]"] ;
878 -> 882 ;
883 [label="gini = 0.0\nsamples = 1\nvalue = [0, 1]"] ;
863 -> 883 ;
884 [label="gini = 0.0\nsamples = 18\nvalue = [18, 0]"] ;
862 -> 884 ;
885 [label="X[13] <= 32.5\ngini = 0.444\nsamples = 3\nvalue = [1, 2]"] ;
811 -> 885 ;
886 [label="gini = 0.0\nsamples = 1\nvalue = [1, 0]"] ;
885 -> 886 ;
887 [label="gini = 0.0\nsamples = 2\nvalue = [0, 2]"] ;
885 -> 887 ;
888 [label="gini = 0.0\nsamples = 13\nvalue = [13, 0]"] ;
810 -> 888 ;
889 [label="gini = 0.0\nsamples = 1\nvalue = [0, 1]"] ;
807 -> 889 ;
890 [label="X[12] <= 43.5\ngini = 0.499\nsamples = 25\nvalue = [13, 12]"] ;
780 -> 890 ;
891 [label="X[1] <= 1.5\ngini = 0.43\nsamples = 16\nvalue = [11, 5]"] ;
890 -> 891 ;
892 [label="gini = 0.0\nsamples = 2\nvalue = [0, 2]"] ;
891 -> 892 ;
893 [label="X[2] <= 169068.0\ngini = 0.337\nsamples = 14\nvalue = [11, 3]"] ;
891 -> 893 ;
894 [label="gini = 0.0\nsamples = 1\nvalue = [0, 1]"] ;
893 -> 894 ;
895 [label="X[0] <= 26.5\ngini = 0.26\nsamples = 13\nvalue = [11, 2]"] ;
893 -> 895 ;
896 [label="gini = 0.0\nsamples = 5\nvalue = [5, 0]"] ;
895 -> 896 ;
897 [label="X[0] <= 28.5\ngini = 0.375\nsamples = 8\nvalue = [6, 2]"] ;
895 -> 897 ;
898 [label="X[10] <= 1705.5\ngini = 0.5\nsamples = 4\nvalue = [2, 2]"] ;
897 -> 898 ;
899 [label="gini = 0.0\nsamples = 2\nvalue = [0, 2]"] ;
898 -> 899 ;
900 [label="gini = 0.0\nsamples = 2\nvalue = [2, 0]"] ;
898 -> 900 ;
901 [label="gini = 0.0\nsamples = 4\nvalue = [4, 0]"] ;
897 -> 901 ;
902 [label="X[12] <= 56.0\ngini = 0.346\nsamples = 9\nvalue = [2, 7]"] ;
890 -> 902 ;
903 [label="gini = 0.0\nsamples = 6\nvalue = [0, 6]"] ;
902 -> 903 ;
904 [label="X[12] <= 67.5\ngini = 0.444\nsamples = 3\nvalue = [2, 1]"] ;
902 -> 904 ;
905 [label="gini = 0.0\nsamples = 2\nvalue = [2, 0]"] ;
904 -> 905 ;
906 [label="gini = 0.0\nsamples = 1\nvalue = [0, 1]"] ;
904 -> 906 ;
907 [label="X[12] <= 39.5\ngini = 0.479\nsamples = 261\nvalue = [157, 104]"] ;
779 -> 907 ;
908 [label="X[0] <= 31.5\ngini = 0.111\nsamples = 17\nvalue = [16, 1]"] ;
907 -> 908 ;
909 [label="X[6] <= 2.0\ngini = 0.5\nsamples = 2\nvalue = [1, 1]"] ;
908 -> 909 ;
910 [label="gini = 0.0\nsamples = 1\nvalue = [1, 0]"] ;
909 -> 910 ;
911 [label="gini = 0.0\nsamples = 1\nvalue = [0, 1]"] ;
909 -> 911 ;
912 [label="gini = 0.0\nsamples = 15\nvalue = [15, 0]"] ;
908 -> 912 ;
913 [label="X[12] <= 52.5\ngini = 0.488\nsamples = 244\nvalue = [141, 103]"] ;
907 -> 913 ;
914 [label="X[10] <= 4147.0\ngini = 0.474\nsamples = 197\nvalue = [121, 76]"] ;
913 -> 914 ;
915 [label="X[2] <= 350508.5\ngini = 0.466\nsamples = 192\nvalue = [121, 71]"] ;
914 -> 915 ;
916 [label="X[2] <= 208041.0\ngini = 0.45\nsamples = 170\nvalue = [112, 58]"] ;
915 -> 916 ;
917 [label="X[2] <= 205105.5\ngini = 0.49\nsamples = 84\nvalue = [48, 36]"] ;
916 -> 917 ;
918 [label="X[2] <= 153504.0\ngini = 0.483\nsamples = 81\nvalue = [48, 33]"] ;
917 -> 918 ;
919 [label="X[6] <= 13.0\ngini = 0.32\nsamples = 5\nvalue = [1, 4]"] ;
918 -> 919 ;
920 [label="gini = 0.0\nsamples = 4\nvalue = [0, 4]"] ;
919 -> 920 ;
921 [label="gini = 0.0\nsamples = 1\nvalue = [1, 0]"] ;
919 -> 921 ;
922 [label="X[2] <= 177657.0\ngini = 0.472\nsamples = 76\nvalue = [47, 29]"] ;
918 -> 922 ;
923 [label="X[6] <= 3.5\ngini = 0.375\nsamples = 32\nvalue = [24, 8]"] ;
922 -> 923 ;
924 [label="X[2] <= 163740.0\ngini = 0.497\nsamples = 13\nvalue = [7, 6]"] ;
923 -> 924 ;
925 [label="X[2] <= 158238.0\ngini = 0.32\nsamples = 5\nvalue = [1, 4]"] ;
924 -> 925 ;
926 [label="X[2] <= 156220.0\ngini = 0.5\nsamples = 2\nvalue = [1, 1]"] ;
925 -> 926 ;
927 [label="gini = 0.0\nsamples = 1\nvalue = [0, 1]"] ;
926 -> 927 ;
928 [label="gini = 0.0\nsamples = 1\nvalue = [1, 0]"] ;
926 -> 928 ;
929 [label="gini = 0.0\nsamples = 3\nvalue = [0, 3]"] ;
925 -> 929 ;
930 [label="X[12] <= 44.0\ngini = 0.375\nsamples = 8\nvalue = [6, 2]"] ;
924 -> 930 ;
931 [label="gini = 0.0\nsamples = 6\nvalue = [6, 0]"] ;
930 -> 931 ;
932 [label="gini = 0.0\nsamples = 2\nvalue = [0, 2]"] ;
930 -> 932 ;
933 [label="X[0] <= 32.5\ngini = 0.188\nsamples = 19\nvalue = [17, 2]"] ;
923 -> 933 ;
934 [label="X[4] <= 11.5\ngini = 0.48\nsamples = 5\nvalue = [3, 2]"] ;
933 -> 934 ;
935 [label="X[4] <= 10.5\ngini = 0.5\nsamples = 4\nvalue = [2, 2]"] ;
934 -> 935 ;
936 [label="X[6] <= 8.0\ngini = 0.444\nsamples = 3\nvalue = [2, 1]"] ;
935 -> 936 ;
937 [label="gini = 0.0\nsamples = 1\nvalue = [1, 0]"] ;
936 -> 937 ;
938 [label="X[2] <= 166656.0\ngini = 0.5\nsamples = 2\nvalue = [1, 1]"] ;
936 -> 938 ;
939 [label="gini = 0.0\nsamples = 1\nvalue = [0, 1]"] ;
938 -> 939 ;
940 [label="gini = 0.0\nsamples = 1\nvalue = [1, 0]"] ;
938 -> 940 ;
941 [label="gini = 0.0\nsamples = 1\nvalue = [0, 1]"] ;
935 -> 941 ;
942 [label="gini = 0.0\nsamples = 1\nvalue = [1, 0]"] ;
934 -> 942 ;
943 [label="gini = 0.0\nsamples = 14\nvalue = [14, 0]"] ;
933 -> 943 ;
944 [label="X[2] <= 184373.5\ngini = 0.499\nsamples = 44\nvalue = [23, 21]"] ;
922 -> 944 ;
945 [label="X[0] <= 34.5\ngini = 0.375\nsamples = 12\nvalue = [3, 9]"] ;
944 -> 945 ;
946 [label="X[13] <= 31.0\ngini = 0.5\nsamples = 6\nvalue = [3, 3]"] ;
945 -> 946 ;
947 [label="gini = 0.0\nsamples = 1\nvalue = [0, 1]"] ;
946 -> 947 ;
948 [label="X[12] <= 42.5\ngini = 0.48\nsamples = 5\nvalue = [3, 2]"] ;
946 -> 948 ;
949 [label="X[0] <= 33.5\ngini = 0.444\nsamples = 3\nvalue = [1, 2]"] ;
948 -> 949 ;
950 [label="gini = 0.0\nsamples = 1\nvalue = [1, 0]"] ;
949 -> 950 ;
951 [label="gini = 0.0\nsamples = 2\nvalue = [0, 2]"] ;
949 -> 951 ;
952 [label="gini = 0.0\nsamples = 2\nvalue = [2, 0]"] ;
948 -> 952 ;
953 [label="gini = 0.0\nsamples = 6\nvalue = [0, 6]"] ;
945 -> 953 ;
954 [label="X[2] <= 203485.0\ngini = 0.469\nsamples = 32\nvalue = [20, 12]"] ;
944 -> 954 ;
955 [label="X[2] <= 198062.5\ngini = 0.49\nsamples = 28\nvalue = [16, 12]"] ;
954 -> 955 ;
956 [label="X[6] <= 0.5\ngini = 0.444\nsamples = 24\nvalue = [16, 8]"] ;
955 -> 956 ;
957 [label="gini = 0.0\nsamples = 1\nvalue = [0, 1]"] ;
956 -> 957 ;
958 [label="X[2] <= 196138.0\ngini = 0.423\nsamples = 23\nvalue = [16, 7]"] ;
956 -> 958 ;
959 [label="X[2] <= 191731.0\ngini = 0.455\nsamples = 20\nvalue = [13, 7]"] ;
958 -> 959 ;
960 [label="X[2] <= 189386.0\ngini = 0.355\nsamples = 13\nvalue = [10, 3]"] ;
959 -> 960 ;
961 [label="X[2] <= 186515.5\ngini = 0.469\nsamples = 8\nvalue = [5, 3]"] ;
960 -> 961 ;
962 [label="X[0] <= 34.5\ngini = 0.278\nsamples = 6\nvalue = [5, 1]"] ;
961 -> 962 ;
963 [label="X[12] <= 42.5\ngini = 0.5\nsamples = 2\nvalue = [1, 1]"] ;
962 -> 963 ;
964 [label="gini = 0.0\nsamples = 1\nvalue = [1, 0]"] ;
963 -> 964 ;
965 [label="gini = 0.0\nsamples = 1\nvalue = [0, 1]"] ;
963 -> 965 ;
966 [label="gini = 0.0\nsamples = 4\nvalue = [4, 0]"] ;
962 -> 966 ;
967 [label="gini = 0.0\nsamples = 2\nvalue = [0, 2]"] ;
961 -> 967 ;
968 [label="gini = 0.0\nsamples = 5\nvalue = [5, 0]"] ;
960 -> 968 ;
969 [label="X[0] <= 33.0\ngini = 0.49\nsamples = 7\nvalue = [3, 4]"] ;
959 -> 969 ;
970 [label="gini = 0.0\nsamples = 2\nvalue = [0, 2]"] ;
969 -> 970 ;
971 [label="X[4] <= 10.5\ngini = 0.48\nsamples = 5\nvalue = [3, 2]"] ;
969 -> 971 ;
972 [label="X[2] <= 193745.5\ngini = 0.444\nsamples = 3\nvalue = [1, 2]"] ;
971 -> 972 ;
973 [label="gini = 0.0\nsamples = 2\nvalue = [0, 2]"] ;
972 -> 973 ;
974 [label="gini = 0.0\nsamples = 1\nvalue = [1, 0]"] ;
972 -> 974 ;
975 [label="gini = 0.0\nsamples = 2\nvalue = [2, 0]"] ;
971 -> 975 ;
976 [label="gini = 0.0\nsamples = 3\nvalue = [3, 0]"] ;
958 -> 976 ;
977 [label="gini = 0.0\nsamples = 4\nvalue = [0, 4]"] ;
955 -> 977 ;
978 [label="gini = 0.0\nsamples = 4\nvalue = [4, 0]"] ;
954 -> 978 ;
979 [label="gini = 0.0\nsamples = 3\nvalue = [0, 3]"] ;
917 -> 979 ;
980 [label="X[12] <= 44.0\ngini = 0.381\nsamples = 86\nvalue = [64, 22]"] ;
916 -> 980 ;
981 [label="X[6] <= 9.0\ngini = 0.444\nsamples = 54\nvalue = [36, 18]"] ;
980 -> 981 ;
982 [label="X[13] <= 14.5\ngini = 0.32\nsamples = 35\nvalue = [28, 7]"] ;
981 -> 982 ;
983 [label="X[13] <= 4.5\ngini = 0.444\nsamples = 3\nvalue = [1, 2]"] ;
982 -> 983 ;
984 [label="gini = 0.0\nsamples = 1\nvalue = [1, 0]"] ;
983 -> 984 ;
985 [label="gini = 0.0\nsamples = 2\nvalue = [0, 2]"] ;
983 -> 985 ;
986 [label="X[2] <= 337738.5\ngini = 0.264\nsamples = 32\nvalue = [27, 5]"] ;
982 -> 986 ;
987 [label="X[2] <= 213447.5\ngini = 0.225\nsamples = 31\nvalue = [27, 4]"] ;
986 -> 987 ;
988 [label="X[1] <= 4.5\ngini = 0.444\nsamples = 6\nvalue = [4, 2]"] ;
987 -> 988 ;
989 [label="X[6] <= 2.0\ngini = 0.32\nsamples = 5\nvalue = [4, 1]"] ;
988 -> 989 ;
990 [label="gini = 0.0\nsamples = 1\nvalue = [0, 1]"] ;
989 -> 990 ;
991 [label="gini = 0.0\nsamples = 4\nvalue = [4, 0]"] ;
989 -> 991 ;
992 [label="gini = 0.0\nsamples = 1\nvalue = [0, 1]"] ;
988 -> 992 ;
993 [label="X[2] <= 301705.0\ngini = 0.147\nsamples = 25\nvalue = [23, 2]"] ;
987 -> 993 ;
994 [label="gini = 0.0\nsamples = 17\nvalue = [17, 0]"] ;
993 -> 994 ;
995 [label="X[2] <= 323092.5\ngini = 0.375\nsamples = 8\nvalue = [6, 2]"] ;
993 -> 995 ;
996 [label="X[3] <= 11.0\ngini = 0.444\nsamples = 3\nvalue = [1, 2]"] ;
995 -> 996 ;
997 [label="gini = 0.0\nsamples = 1\nvalue = [1, 0]"] ;
996 -> 997 ;
998 [label="gini = 0.0\nsamples = 2\nvalue = [0, 2]"] ;
996 -> 998 ;
999 [label="gini = 0.0\nsamples = 5\nvalue = [5, 0]"] ;
995 -> 999 ;
1000 [label="gini = 0.0\nsamples = 1\nvalue = [0, 1]"] ;
986 -> 1000 ;
1001 [label="X[6] <= 13.5\ngini = 0.488\nsamples = 19\nvalue = [8, 11]"] ;
981 -> 1001 ;
1002 [label="X[8] <= 3.0\ngini = 0.457\nsamples = 17\nvalue = [6, 11]"] ;
1001 -> 1002 ;
1003 [label="gini = 0.0\nsamples = 3\nvalue = [0, 3]"] ;
1002 -> 1003 ;
1004 [label="X[6] <= 12.5\ngini = 0.49\nsamples = 14\nvalue = [6, 8]"] ;
1002 -> 1004 ;
1005 [label="X[6] <= 10.5\ngini = 0.5\nsamples = 12\nvalue = [6, 6]"] ;
1004 -> 1005 ;
1006 [label="X[0] <= 32.5\ngini = 0.375\nsamples = 4\nvalue = [1, 3]"] ;
1005 -> 1006 ;
1007 [label="gini = 0.0\nsamples = 1\nvalue = [1, 0]"] ;
1006 -> 1007 ;
1008 [label="gini = 0.0\nsamples = 3\nvalue = [0, 3]"] ;
1006 -> 1008 ;
1009 [label="X[2] <= 259475.0\ngini = 0.469\nsamples = 8\nvalue = [5, 3]"] ;
1005 -> 1009 ;
1010 [label="X[2] <= 226355.0\ngini = 0.48\nsamples = 5\nvalue = [2, 3]"] ;
1009 -> 1010 ;
1011 [label="gini = 0.0\nsamples = 2\nvalue = [2, 0]"] ;
1010 -> 1011 ;
1012 [label="gini = 0.0\nsamples = 3\nvalue = [0, 3]"] ;
1010 -> 1012 ;
1013 [label="gini = 0.0\nsamples = 3\nvalue = [3, 0]"] ;
1009 -> 1013 ;
1014 [label="gini = 0.0\nsamples = 2\nvalue = [0, 2]"] ;
1004 -> 1014 ;
1015 [label="gini = 0.0\nsamples = 2\nvalue = [2, 0]"] ;
1001 -> 1015 ;
1016 [label="X[2] <= 311424.5\ngini = 0.219\nsamples = 32\nvalue = [28, 4]"] ;
980 -> 1016 ;
1017 [label="X[13] <= 24.5\ngini = 0.083\nsamples = 23\nvalue = [22, 1]"] ;
1016 -> 1017 ;
1018 [label="X[0] <= 33.5\ngini = 0.444\nsamples = 3\nvalue = [2, 1]"] ;
1017 -> 1018 ;
1019 [label="gini = 0.0\nsamples = 2\nvalue = [2, 0]"] ;
1018 -> 1019 ;
1020 [label="gini = 0.0\nsamples = 1\nvalue = [0, 1]"] ;
1018 -> 1020 ;
1021 [label="gini = 0.0\nsamples = 20\nvalue = [20, 0]"] ;
1017 -> 1021 ;
1022 [label="X[0] <= 32.5\ngini = 0.444\nsamples = 9\nvalue = [6, 3]"] ;
1016 -> 1022 ;
1023 [label="gini = 0.0\nsamples = 5\nvalue = [5, 0]"] ;
1022 -> 1023 ;
1024 [label="X[0] <= 34.0\ngini = 0.375\nsamples = 4\nvalue = [1, 3]"] ;
1022 -> 1024 ;
1025 [label="gini = 0.0\nsamples = 2\nvalue = [0, 2]"] ;
1024 -> 1025 ;
1026 [label="X[1] <= 4.5\ngini = 0.5\nsamples = 2\nvalue = [1, 1]"] ;
1024 -> 1026 ;
1027 [label="gini = 0.0\nsamples = 1\nvalue = [1, 0]"] ;
1026 -> 1027 ;
1028 [label="gini = 0.0\nsamples = 1\nvalue = [0, 1]"] ;
1026 -> 1028 ;
1029 [label="X[2] <= 383715.0\ngini = 0.483\nsamples = 22\nvalue = [9, 13]"] ;
915 -> 1029 ;
1030 [label="X[12] <= 46.5\ngini = 0.219\nsamples = 8\nvalue = [1, 7]"] ;
1029 -> 1030 ;
1031 [label="gini = 0.0\nsamples = 7\nvalue = [0, 7]"] ;
1030 -> 1031 ;
1032 [label="gini = 0.0\nsamples = 1\nvalue = [1, 0]"] ;
1030 -> 1032 ;
1033 [label="X[6] <= 6.5\ngini = 0.49\nsamples = 14\nvalue = [8, 6]"] ;
1029 -> 1033 ;
1034 [label="X[2] <= 389591.0\ngini = 0.48\nsamples = 10\nvalue = [4, 6]"] ;
1033 -> 1034 ;
1035 [label="gini = 0.0\nsamples = 2\nvalue = [2, 0]"] ;
1034 -> 1035 ;
1036 [label="X[4] <= 11.0\ngini = 0.375\nsamples = 8\nvalue = [2, 6]"] ;
1034 -> 1036 ;
1037 [label="X[2] <= 520864.5\ngini = 0.245\nsamples = 7\nvalue = [1, 6]"] ;
1036 -> 1037 ;
1038 [label="gini = 0.0\nsamples = 4\nvalue = [0, 4]"] ;
1037 -> 1038 ;
1039 [label="X[2] <= 540896.0\ngini = 0.444\nsamples = 3\nvalue = [1, 2]"] ;
1037 -> 1039 ;
1040 [label="gini = 0.0\nsamples = 1\nvalue = [1, 0]"] ;
1039 -> 1040 ;
1041 [label="gini = 0.0\nsamples = 2\nvalue = [0, 2]"] ;
1039 -> 1041 ;
1042 [label="gini = 0.0\nsamples = 1\nvalue = [1, 0]"] ;
1036 -> 1042 ;
1043 [label="gini = 0.0\nsamples = 4\nvalue = [4, 0]"] ;
1033 -> 1043 ;
1044 [label="gini = 0.0\nsamples = 5\nvalue = [0, 5]"] ;
914 -> 1044 ;
1045 [label="X[13] <= 34.0\ngini = 0.489\nsamples = 47\nvalue = [20, 27]"] ;
913 -> 1045 ;
1046 [label="X[11] <= 742.5\ngini = 0.32\nsamples = 5\nvalue = [4, 1]"] ;
1045 -> 1046 ;
1047 [label="gini = 0.0\nsamples = 4\nvalue = [4, 0]"] ;
1046 -> 1047 ;
1048 [label="gini = 0.0\nsamples = 1\nvalue = [0, 1]"] ;
1046 -> 1048 ;
1049 [label="X[10] <= 1203.5\ngini = 0.472\nsamples = 42\nvalue = [16, 26]"] ;
1045 -> 1049 ;
1050 [label="X[2] <= 172989.0\ngini = 0.455\nsamples = 40\nvalue = [14, 26]"] ;
1049 -> 1050 ;
1051 [label="gini = 0.0\nsamples = 6\nvalue = [0, 6]"] ;
1050 -> 1051 ;
1052 [label="X[1] <= 5.5\ngini = 0.484\nsamples = 34\nvalue = [14, 20]"] ;
1050 -> 1052 ;
1053 [label="X[1] <= 4.5\ngini = 0.444\nsamples = 27\nvalue = [9, 18]"] ;
1052 -> 1053 ;
1054 [label="X[2] <= 305563.0\ngini = 0.49\nsamples = 21\nvalue = [9, 12]"] ;
1053 -> 1054 ;
1055 [label="X[0] <= 33.5\ngini = 0.415\nsamples = 17\nvalue = [5, 12]"] ;
1054 -> 1055 ;
1056 [label="gini = 0.0\nsamples = 7\nvalue = [0, 7]"] ;
1055 -> 1056 ;
1057 [label="X[2] <= 249866.5\ngini = 0.5\nsamples = 10\nvalue = [5, 5]"] ;
1055 -> 1057 ;
1058 [label="X[6] <= 10.5\ngini = 0.469\nsamples = 8\nvalue = [5, 3]"] ;
1057 -> 1058 ;
1059 [label="gini = 0.0\nsamples = 4\nvalue = [4, 0]"] ;
1058 -> 1059 ;
1060 [label="X[1] <= 3.0\ngini = 0.375\nsamples = 4\nvalue = [1, 3]"] ;
1058 -> 1060 ;
1061 [label="gini = 0.0\nsamples = 3\nvalue = [0, 3]"] ;
1060 -> 1061 ;
1062 [label="gini = 0.0\nsamples = 1\nvalue = [1, 0]"] ;
1060 -> 1062 ;
1063 [label="gini = 0.0\nsamples = 2\nvalue = [0, 2]"] ;
1057 -> 1063 ;
1064 [label="gini = 0.0\nsamples = 4\nvalue = [4, 0]"] ;
1054 -> 1064 ;
1065 [label="gini = 0.0\nsamples = 6\nvalue = [0, 6]"] ;
1053 -> 1065 ;
1066 [label="X[0] <= 35.5\ngini = 0.408\nsamples = 7\nvalue = [5, 2]"] ;
1052 -> 1066 ;
1067 [label="X[6] <= 11.0\ngini = 0.278\nsamples = 6\nvalue = [5, 1]"] ;
1066 -> 1067 ;
1068 [label="gini = 0.0\nsamples = 5\nvalue = [5, 0]"] ;
1067 -> 1068 ;
1069 [label="gini = 0.0\nsamples = 1\nvalue = [0, 1]"] ;
1067 -> 1069 ;
1070 [label="gini = 0.0\nsamples = 1\nvalue = [0, 1]"] ;
1066 -> 1070 ;
1071 [label="gini = 0.0\nsamples = 2\nvalue = [2, 0]"] ;
1049 -> 1071 ;
1072 [label="X[12] <= 34.5\ngini = 0.468\nsamples = 3068\nvalue = [1924, 1144]"] ;
266 -> 1072 ;
1073 [label="X[4] <= 9.5\ngini = 0.166\nsamples = 273\nvalue = [248, 25]"] ;
1072 -> 1073 ;
1074 [label="X[10] <= 4102.0\ngini = 0.081\nsamples = 166\nvalue = [159, 7]"] ;
1073 -> 1074 ;
1075 [label="X[12] <= 29.0\ngini = 0.07\nsamples = 164\nvalue = [158, 6]"] ;
1074 -> 1075 ;
1076 [label="X[1] <= 4.5\ngini = 0.034\nsamples = 117\nvalue = [115, 2]"] ;
1075 -> 1076 ;
1077 [label="gini = 0.0\nsamples = 86\nvalue = [86, 0]"] ;
1076 -> 1077 ;
1078 [label="X[1] <= 5.5\ngini = 0.121\nsamples = 31\nvalue = [29, 2]"] ;
1076 -> 1078 ;
1079 [label="X[2] <= 173593.0\ngini = 0.444\nsamples = 3\nvalue = [2, 1]"] ;
1078 -> 1079 ;
1080 [label="gini = 0.0\nsamples = 2\nvalue = [2, 0]"] ;
1079 -> 1080 ;
1081 [label="gini = 0.0\nsamples = 1\nvalue = [0, 1]"] ;
1079 -> 1081 ;
1082 [label="X[2] <= 105145.5\ngini = 0.069\nsamples = 28\nvalue = [27, 1]"] ;
1078 -> 1082 ;
1083 [label="X[2] <= 101030.5\ngini = 0.444\nsamples = 3\nvalue = [2, 1]"] ;
1082 -> 1083 ;
1084 [label="gini = 0.0\nsamples = 2\nvalue = [2, 0]"] ;
1083 -> 1084 ;
1085 [label="gini = 0.0\nsamples = 1\nvalue = [0, 1]"] ;
1083 -> 1085 ;
1086 [label="gini = 0.0\nsamples = 25\nvalue = [25, 0]"] ;
1082 -> 1086 ;
1087 [label="X[6] <= 12.5\ngini = 0.156\nsamples = 47\nvalue = [43, 4]"] ;
1075 -> 1087 ;
1088 [label="X[0] <= 58.5\ngini = 0.095\nsamples = 40\nvalue = [38, 2]"] ;
1087 -> 1088 ;
1089 [label="gini = 0.0\nsamples = 23\nvalue = [23, 0]"] ;
1088 -> 1089 ;
1090 [label="X[0] <= 59.5\ngini = 0.208\nsamples = 17\nvalue = [15, 2]"] ;
1088 -> 1090 ;
1091 [label="gini = 0.0\nsamples = 1\nvalue = [0, 1]"] ;
1090 -> 1091 ;
1092 [label="X[0] <= 73.5\ngini = 0.117\nsamples = 16\nvalue = [15, 1]"] ;
1090 -> 1092 ;
1093 [label="gini = 0.0\nsamples = 10\nvalue = [10, 0]"] ;
1092 -> 1093 ;
1094 [label="X[2] <= 221038.5\ngini = 0.278\nsamples = 6\nvalue = [5, 1]"] ;
1092 -> 1094 ;
1095 [label="gini = 0.0\nsamples = 4\nvalue = [4, 0]"] ;
1094 -> 1095 ;
1096 [label="X[6] <= 3.5\ngini = 0.5\nsamples = 2\nvalue = [1, 1]"] ;
1094 -> 1096 ;
1097 [label="gini = 0.0\nsamples = 1\nvalue = [1, 0]"] ;
1096 -> 1097 ;
1098 [label="gini = 0.0\nsamples = 1\nvalue = [0, 1]"] ;
1096 -> 1098 ;
1099 [label="X[6] <= 13.5\ngini = 0.408\nsamples = 7\nvalue = [5, 2]"] ;
1087 -> 1099 ;
1100 [label="X[0] <= 59.0\ngini = 0.444\nsamples = 3\nvalue = [1, 2]"] ;
1099 -> 1100 ;
1101 [label="gini = 0.0\nsamples = 2\nvalue = [0, 2]"] ;
1100 -> 1101 ;
1102 [label="gini = 0.0\nsamples = 1\nvalue = [1, 0]"] ;
1100 -> 1102 ;
1103 [label="gini = 0.0\nsamples = 4\nvalue = [4, 0]"] ;
1099 -> 1103 ;
1104 [label="X[8] <= 3.0\ngini = 0.5\nsamples = 2\nvalue = [1, 1]"] ;
1074 -> 1104 ;
1105 [label="gini = 0.0\nsamples = 1\nvalue = [0, 1]"] ;
1104 -> 1105 ;
1106 [label="gini = 0.0\nsamples = 1\nvalue = [1, 0]"] ;
1104 -> 1106 ;
1107 [label="X[0] <= 69.5\ngini = 0.28\nsamples = 107\nvalue = [89, 18]"] ;
1073 -> 1107 ;
1108 [label="X[6] <= 10.5\ngini = 0.231\nsamples = 90\nvalue = [78, 12]"] ;
1107 -> 1108 ;
1109 [label="X[6] <= 4.5\ngini = 0.155\nsamples = 59\nvalue = [54, 5]"] ;
1108 -> 1109 ;
1110 [label="X[2] <= 231557.5\ngini = 0.257\nsamples = 33\nvalue = [28, 5]"] ;
1109 -> 1110 ;
1111 [label="X[2] <= 194496.5\ngini = 0.33\nsamples = 24\nvalue = [19, 5]"] ;
1110 -> 1111 ;
1112 [label="X[3] <= 7.5\ngini = 0.188\nsamples = 19\nvalue = [17, 2]"] ;
1111 -> 1112 ;
1113 [label="X[8] <= 3.0\ngini = 0.5\nsamples = 2\nvalue = [1, 1]"] ;
1112 -> 1113 ;
1114 [label="gini = 0.0\nsamples = 1\nvalue = [0, 1]"] ;
1113 -> 1114 ;
1115 [label="gini = 0.0\nsamples = 1\nvalue = [1, 0]"] ;
1113 -> 1115 ;
1116 [label="X[1] <= 5.0\ngini = 0.111\nsamples = 17\nvalue = [16, 1]"] ;
1112 -> 1116 ;
1117 [label="gini = 0.0\nsamples = 13\nvalue = [13, 0]"] ;
1116 -> 1117 ;
1118 [label="X[2] <= 118965.0\ngini = 0.375\nsamples = 4\nvalue = [3, 1]"] ;
1116 -> 1118 ;
1119 [label="X[0] <= 59.5\ngini = 0.5\nsamples = 2\nvalue = [1, 1]"] ;
1118 -> 1119 ;
1120 [label="gini = 0.0\nsamples = 1\nvalue = [0, 1]"] ;
1119 -> 1120 ;
1121 [label="gini = 0.0\nsamples = 1\nvalue = [1, 0]"] ;
1119 -> 1121 ;
1122 [label="gini = 0.0\nsamples = 2\nvalue = [2, 0]"] ;
1118 -> 1122 ;
1123 [label="X[2] <= 204073.0\ngini = 0.48\nsamples = 5\nvalue = [2, 3]"] ;
1111 -> 1123 ;
1124 [label="gini = 0.0\nsamples = 2\nvalue = [0, 2]"] ;
1123 -> 1124 ;
1125 [label="X[2] <= 223087.0\ngini = 0.444\nsamples = 3\nvalue = [2, 1]"] ;
1123 -> 1125 ;
1126 [label="gini = 0.0\nsamples = 2\nvalue = [2, 0]"] ;
1125 -> 1126 ;
1127 [label="gini = 0.0\nsamples = 1\nvalue = [0, 1]"] ;
1125 -> 1127 ;
1128 [label="gini = 0.0\nsamples = 9\nvalue = [9, 0]"] ;
1110 -> 1128 ;
1129 [label="gini = 0.0\nsamples = 26\nvalue = [26, 0]"] ;
1109 -> 1129 ;
1130 [label="X[0] <= 44.5\ngini = 0.35\nsamples = 31\nvalue = [24, 7]"] ;
1108 -> 1130 ;
1131 [label="X[2] <= 215492.5\ngini = 0.48\nsamples = 5\nvalue = [2, 3]"] ;
1130 -> 1131 ;
1132 [label="X[6] <= 13.5\ngini = 0.375\nsamples = 4\nvalue = [1, 3]"] ;
1131 -> 1132 ;
1133 [label="gini = 0.0\nsamples = 3\nvalue = [0, 3]"] ;
1132 -> 1133 ;
1134 [label="gini = 0.0\nsamples = 1\nvalue = [1, 0]"] ;
1132 -> 1134 ;
1135 [label="gini = 0.0\nsamples = 1\nvalue = [1, 0]"] ;
1131 -> 1135 ;
1136 [label="X[10] <= 1551.5\ngini = 0.26\nsamples = 26\nvalue = [22, 4]"] ;
1130 -> 1136 ;
1137 [label="X[1] <= 1.5\ngini = 0.211\nsamples = 25\nvalue = [22, 3]"] ;
1136 -> 1137 ;
1138 [label="gini = 0.0\nsamples = 1\nvalue = [0, 1]"] ;
1137 -> 1138 ;
1139 [label="X[12] <= 24.5\ngini = 0.153\nsamples = 24\nvalue = [22, 2]"] ;
1137 -> 1139 ;
1140 [label="X[12] <= 22.0\ngini = 0.26\nsamples = 13\nvalue = [11, 2]"] ;
1139 -> 1140 ;
1141 [label="X[6] <= 11.5\ngini = 0.165\nsamples = 11\nvalue = [10, 1]"] ;
1140 -> 1141 ;
1142 [label="X[0] <= 55.0\ngini = 0.444\nsamples = 3\nvalue = [2, 1]"] ;
1141 -> 1142 ;
1143 [label="gini = 0.0\nsamples = 2\nvalue = [2, 0]"] ;
1142 -> 1143 ;
1144 [label="gini = 0.0\nsamples = 1\nvalue = [0, 1]"] ;
1142 -> 1144 ;
1145 [label="gini = 0.0\nsamples = 8\nvalue = [8, 0]"] ;
1141 -> 1145 ;
1146 [label="X[2] <= 259489.5\ngini = 0.5\nsamples = 2\nvalue = [1, 1]"] ;
1140 -> 1146 ;
1147 [label="gini = 0.0\nsamples = 1\nvalue = [0, 1]"] ;
1146 -> 1147 ;
1148 [label="gini = 0.0\nsamples = 1\nvalue = [1, 0]"] ;
1146 -> 1148 ;
1149 [label="gini = 0.0\nsamples = 11\nvalue = [11, 0]"] ;
1139 -> 1149 ;
1150 [label="gini = 0.0\nsamples = 1\nvalue = [0, 1]"] ;
1136 -> 1150 ;
1151 [label="X[2] <= 96684.5\ngini = 0.457\nsamples = 17\nvalue = [11, 6]"] ;
1107 -> 1151 ;
1152 [label="gini = 0.0\nsamples = 2\nvalue = [0, 2]"] ;
1151 -> 1152 ;
1153 [label="X[0] <= 70.5\ngini = 0.391\nsamples = 15\nvalue = [11, 4]"] ;
1151 -> 1153 ;
1154 [label="X[12] <= 24.5\ngini = 0.49\nsamples = 7\nvalue = [3, 4]"] ;
1153 -> 1154 ;
1155 [label="X[6] <= 9.0\ngini = 0.32\nsamples = 5\nvalue = [1, 4]"] ;
1154 -> 1155 ;
1156 [label="gini = 0.0\nsamples = 4\nvalue = [0, 4]"] ;
1155 -> 1156 ;
1157 [label="gini = 0.0\nsamples = 1\nvalue = [1, 0]"] ;
1155 -> 1157 ;
1158 [label="gini = 0.0\nsamples = 2\nvalue = [2, 0]"] ;
1154 -> 1158 ;
1159 [label="gini = 0.0\nsamples = 8\nvalue = [8, 0]"] ;
1153 -> 1159 ;
1160 [label="X[1] <= 5.5\ngini = 0.48\nsamples = 2795\nvalue = [1676, 1119]"] ;
1072 -> 1160 ;
1161 [label="X[12] <= 43.5\ngini = 0.49\nsamples = 2342\nvalue = [1336, 1006]"] ;
1160 -> 1161 ;
1162 [label="X[4] <= 9.5\ngini = 0.473\nsamples = 1494\nvalue = [919, 575]"] ;
1161 -> 1162 ;
1163 [label="X[13] <= 34.0\ngini = 0.448\nsamples = 881\nvalue = [583, 298]"] ;
1162 -> 1163 ;
1164 [label="X[1] <= 1.5\ngini = 0.294\nsamples = 67\nvalue = [55, 12]"] ;
1163 -> 1164 ;
1165 [label="X[10] <= 1971.0\ngini = 0.444\nsamples = 3\nvalue = [1, 2]"] ;
1164 -> 1165 ;
1166 [label="gini = 0.0\nsamples = 2\nvalue = [0, 2]"] ;
1165 -> 1166 ;
1167 [label="gini = 0.0\nsamples = 1\nvalue = [1, 0]"] ;
1165 -> 1167 ;
1168 [label="X[0] <= 45.5\ngini = 0.264\nsamples = 64\nvalue = [54, 10]"] ;
1164 -> 1168 ;
1169 [label="X[2] <= 232628.5\ngini = 0.111\nsamples = 34\nvalue = [32, 2]"] ;
1168 -> 1169 ;
1170 [label="gini = 0.0\nsamples = 18\nvalue = [18, 0]"] ;
1169 -> 1170 ;
1171 [label="X[2] <= 240141.0\ngini = 0.219\nsamples = 16\nvalue = [14, 2]"] ;
1169 -> 1171 ;
1172 [label="gini = 0.0\nsamples = 2\nvalue = [0, 2]"] ;
1171 -> 1172 ;
1173 [label="gini = 0.0\nsamples = 14\nvalue = [14, 0]"] ;
1171 -> 1173 ;
1174 [label="X[6] <= 6.5\ngini = 0.391\nsamples = 30\nvalue = [22, 8]"] ;
1168 -> 1174 ;
1175 [label="X[0] <= 49.0\ngini = 0.133\nsamples = 14\nvalue = [13, 1]"] ;
1174 -> 1175 ;
1176 [label="X[0] <= 47.5\ngini = 0.375\nsamples = 4\nvalue = [3, 1]"] ;
1175 -> 1176 ;
1177 [label="gini = 0.0\nsamples = 3\nvalue = [3, 0]"] ;
1176 -> 1177 ;
1178 [label="gini = 0.0\nsamples = 1\nvalue = [0, 1]"] ;
1176 -> 1178 ;
1179 [label="gini = 0.0\nsamples = 10\nvalue = [10, 0]"] ;
1175 -> 1179 ;
1180 [label="X[0] <= 56.5\ngini = 0.492\nsamples = 16\nvalue = [9, 7]"] ;
1174 -> 1180 ;
1181 [label="X[12] <= 39.0\ngini = 0.463\nsamples = 11\nvalue = [4, 7]"] ;
1180 -> 1181 ;
1182 [label="gini = 0.0\nsamples = 3\nvalue = [3, 0]"] ;
1181 -> 1182 ;
1183 [label="X[2] <= 97941.5\ngini = 0.219\nsamples = 8\nvalue = [1, 7]"] ;
1181 -> 1183 ;
1184 [label="gini = 0.0\nsamples = 1\nvalue = [1, 0]"] ;
1183 -> 1184 ;
1185 [label="gini = 0.0\nsamples = 7\nvalue = [0, 7]"] ;
1183 -> 1185 ;
1186 [label="gini = 0.0\nsamples = 5\nvalue = [5, 0]"] ;
1180 -> 1186 ;
1187 [label="X[0] <= 71.5\ngini = 0.456\nsamples = 814\nvalue = [528, 286]"] ;
1163 -> 1187 ;
1188 [label="X[0] <= 59.5\ngini = 0.454\nsamples = 808\nvalue = [527, 281]"] ;
1187 -> 1188 ;
1189 [label="X[0] <= 58.5\ngini = 0.463\nsamples = 699\nvalue = [444, 255]"] ;
1188 -> 1189 ;
1190 [label="X[0] <= 46.5\ngini = 0.458\nsamples = 682\nvalue = [440, 242]"] ;
1189 -> 1190 ;
1191 [label="X[12] <= 41.5\ngini = 0.427\nsamples = 372\nvalue = [257, 115]"] ;
1190 -> 1191 ;
1192 [label="X[1] <= 0.5\ngini = 0.42\nsamples = 363\nvalue = [254, 109]"] ;
1191 -> 1192 ;
1193 [label="gini = 0.0\nsamples = 8\nvalue = [8, 0]"] ;
1192 -> 1193 ;
1194 [label="X[11] <= 742.5\ngini = 0.426\nsamples = 355\nvalue = [246, 109]"] ;
1192 -> 1194 ;
1195 [label="X[2] <= 83652.0\ngini = 0.431\nsamples = 347\nvalue = [238, 109]"] ;
1194 -> 1195 ;
1196 [label="X[6] <= 2.0\ngini = 0.308\nsamples = 42\nvalue = [34, 8]"] ;
1195 -> 1196 ;
1197 [label="gini = 0.0\nsamples = 1\nvalue = [0, 1]"] ;
1196 -> 1197 ;
1198 [label="X[2] <= 64070.0\ngini = 0.283\nsamples = 41\nvalue = [34, 7]"] ;
1196 -> 1198 ;
1199 [label="X[2] <= 58800.0\ngini = 0.366\nsamples = 29\nvalue = [22, 7]"] ;
1198 -> 1199 ;
1200 [label="X[1] <= 3.0\ngini = 0.302\nsamples = 27\nvalue = [22, 5]"] ;
1199 -> 1200 ;
1201 [label="X[6] <= 12.5\ngini = 0.444\nsamples = 3\nvalue = [1, 2]"] ;
1200 -> 1201 ;
1202 [label="gini = 0.0\nsamples = 2\nvalue = [0, 2]"] ;
1201 -> 1202 ;
1203 [label="gini = 0.0\nsamples = 1\nvalue = [1, 0]"] ;
1201 -> 1203 ;
1204 [label="X[6] <= 3.5\ngini = 0.219\nsamples = 24\nvalue = [21, 3]"] ;
1200 -> 1204 ;
1205 [label="gini = 0.0\nsamples = 9\nvalue = [9, 0]"] ;
1204 -> 1205 ;
1206 [label="X[2] <= 32613.0\ngini = 0.32\nsamples = 15\nvalue = [12, 3]"] ;
1204 -> 1206 ;
1207 [label="X[6] <= 10.0\ngini = 0.5\nsamples = 4\nvalue = [2, 2]"] ;
1206 -> 1207 ;
1208 [label="gini = 0.0\nsamples = 2\nvalue = [0, 2]"] ;
1207 -> 1208 ;
1209 [label="gini = 0.0\nsamples = 2\nvalue = [2, 0]"] ;
1207 -> 1209 ;
1210 [label="X[0] <= 39.5\ngini = 0.165\nsamples = 11\nvalue = [10, 1]"] ;
1206 -> 1210 ;
1211 [label="X[6] <= 12.0\ngini = 0.444\nsamples = 3\nvalue = [2, 1]"] ;
1210 -> 1211 ;
1212 [label="gini = 0.0\nsamples = 2\nvalue = [2, 0]"] ;
1211 -> 1212 ;
1213 [label="gini = 0.0\nsamples = 1\nvalue = [0, 1]"] ;
1211 -> 1213 ;
1214 [label="gini = 0.0\nsamples = 8\nvalue = [8, 0]"] ;
1210 -> 1214 ;
1215 [label="gini = 0.0\nsamples = 2\nvalue = [0, 2]"] ;
1199 -> 1215 ;
1216 [label="gini = 0.0\nsamples = 12\nvalue = [12, 0]"] ;
1198 -> 1216 ;
1217 [label="X[2] <= 88566.5\ngini = 0.443\nsamples = 305\nvalue = [204, 101]"] ;
1195 -> 1217 ;
1218 [label="gini = 0.0\nsamples = 2\nvalue = [0, 2]"] ;
1217 -> 1218 ;
1219 [label="X[1] <= 1.5\ngini = 0.44\nsamples = 303\nvalue = [204, 99]"] ;
1217 -> 1219 ;
1220 [label="X[0] <= 40.5\ngini = 0.498\nsamples = 15\nvalue = [7, 8]"] ;
1219 -> 1220 ;
1221 [label="X[2] <= 230580.5\ngini = 0.48\nsamples = 10\nvalue = [6, 4]"] ;
1220 -> 1221 ;
1222 [label="X[2] <= 93574.0\ngini = 0.48\nsamples = 5\nvalue = [2, 3]"] ;
1221 -> 1222 ;
1223 [label="gini = 0.0\nsamples = 1\nvalue = [1, 0]"] ;
1222 -> 1223 ;
1224 [label="X[2] <= 143421.5\ngini = 0.375\nsamples = 4\nvalue = [1, 3]"] ;
1222 -> 1224 ;
1225 [label="gini = 0.0\nsamples = 2\nvalue = [0, 2]"] ;
1224 -> 1225 ;
1226 [label="X[6] <= 3.5\ngini = 0.5\nsamples = 2\nvalue = [1, 1]"] ;
1224 -> 1226 ;
1227 [label="gini = 0.0\nsamples = 1\nvalue = [1, 0]"] ;
1226 -> 1227 ;
1228 [label="gini = 0.0\nsamples = 1\nvalue = [0, 1]"] ;
1226 -> 1228 ;
1229 [label="X[2] <= 355973.5\ngini = 0.32\nsamples = 5\nvalue = [4, 1]"] ;
1221 -> 1229 ;
1230 [label="gini = 0.0\nsamples = 3\nvalue = [3, 0]"] ;
1229 -> 1230 ;
1231 [label="X[6] <= 2.0\ngini = 0.5\nsamples = 2\nvalue = [1, 1]"] ;
1229 -> 1231 ;
1232 [label="gini = 0.0\nsamples = 1\nvalue = [1, 0]"] ;
1231 -> 1232 ;
1233 [label="gini = 0.0\nsamples = 1\nvalue = [0, 1]"] ;
1231 -> 1233 ;
1234 [label="X[2] <= 149830.5\ngini = 0.32\nsamples = 5\nvalue = [1, 4]"] ;
1220 -> 1234 ;
1235 [label="X[0] <= 44.0\ngini = 0.5\nsamples = 2\nvalue = [1, 1]"] ;
1234 -> 1235 ;
1236 [label="gini = 0.0\nsamples = 1\nvalue = [1, 0]"] ;
1235 -> 1236 ;
1237 [label="gini = 0.0\nsamples = 1\nvalue = [0, 1]"] ;
1235 -> 1237 ;
1238 [label="gini = 0.0\nsamples = 3\nvalue = [0, 3]"] ;
1234 -> 1238 ;
1239 [label="X[10] <= 1414.5\ngini = 0.432\nsamples = 288\nvalue = [197, 91]"] ;
1219 -> 1239 ;
1240 [label="X[6] <= 4.5\ngini = 0.439\nsamples = 273\nvalue = [184, 89]"] ;
1239 -> 1240 ;
1241 [label="X[6] <= 3.5\ngini = 0.466\nsamples = 135\nvalue = [85, 50]"] ;
1240 -> 1241 ;
1242 [label="X[2] <= 246497.0\ngini = 0.442\nsamples = 109\nvalue = [73, 36]"] ;
1241 -> 1242 ;
1243 [label="X[0] <= 40.5\ngini = 0.393\nsamples = 82\nvalue = [60, 22]"] ;
1242 -> 1243 ;
1244 [label="X[1] <= 4.5\ngini = 0.303\nsamples = 43\nvalue = [35, 8]"] ;
1243 -> 1244 ;
1245 [label="X[2] <= 147377.0\ngini = 0.283\nsamples = 41\nvalue = [34, 7]"] ;
1244 -> 1245 ;
1246 [label="X[0] <= 38.5\ngini = 0.397\nsamples = 11\nvalue = [8, 3]"] ;
1245 -> 1246 ;
1247 [label="gini = 0.0\nsamples = 5\nvalue = [5, 0]"] ;
1246 -> 1247 ;
1248 [label="X[2] <= 99234.0\ngini = 0.5\nsamples = 6\nvalue = [3, 3]"] ;
1246 -> 1248 ;
1249 [label="gini = 0.0\nsamples = 1\nvalue = [1, 0]"] ;
1248 -> 1249 ;
1250 [label="X[2] <= 105401.0\ngini = 0.48\nsamples = 5\nvalue = [2, 3]"] ;
1248 -> 1250 ;
1251 [label="gini = 0.0\nsamples = 1\nvalue = [0, 1]"] ;
1250 -> 1251 ;
1252 [label="X[0] <= 39.5\ngini = 0.5\nsamples = 4\nvalue = [2, 2]"] ;
1250 -> 1252 ;
1253 [label="X[2] <= 112763.0\ngini = 0.444\nsamples = 3\nvalue = [2, 1]"] ;
1252 -> 1253 ;
1254 [label="gini = 0.0\nsamples = 1\nvalue = [1, 0]"] ;
1253 -> 1254 ;
1255 [label="X[2] <= 122007.5\ngini = 0.5\nsamples = 2\nvalue = [1, 1]"] ;
1253 -> 1255 ;
1256 [label="gini = 0.0\nsamples = 1\nvalue = [0, 1]"] ;
1255 -> 1256 ;
1257 [label="gini = 0.0\nsamples = 1\nvalue = [1, 0]"] ;
1255 -> 1257 ;
1258 [label="gini = 0.0\nsamples = 1\nvalue = [0, 1]"] ;
1252 -> 1258 ;
1259 [label="X[2] <= 185771.0\ngini = 0.231\nsamples = 30\nvalue = [26, 4]"] ;
1245 -> 1259 ;
1260 [label="gini = 0.0\nsamples = 13\nvalue = [13, 0]"] ;
1259 -> 1260 ;
1261 [label="X[2] <= 192743.0\ngini = 0.36\nsamples = 17\nvalue = [13, 4]"] ;
1259 -> 1261 ;
1262 [label="gini = 0.0\nsamples = 1\nvalue = [0, 1]"] ;
1261 -> 1262 ;
1263 [label="X[0] <= 38.5\ngini = 0.305\nsamples = 16\nvalue = [13, 3]"] ;
1261 -> 1263 ;
1264 [label="X[2] <= 235331.0\ngini = 0.42\nsamples = 10\nvalue = [7, 3]"] ;
1263 -> 1264 ;
